{"learner":{"attributes":{"best_iteration":"287","best_score":"1.4135028765480313","scikit_learn":"{\"_estimator_type\": \"regressor\"}"},"feature_names":["B1","B11","B12","B2","B3","B4","B5","B6","B7","B8","B8A","B9","CLOUDY_PIXEL_PERCENTAGE","CLOUD_COVERAGE_ASSESSMENT","MEAN_INCIDENCE_AZIMUTH_ANGLE_B10_cos","MEAN_INCIDENCE_AZIMUTH_ANGLE_B10_sin","MEAN_INCIDENCE_AZIMUTH_ANGLE_B11_cos","MEAN_INCIDENCE_AZIMUTH_ANGLE_B11_sin","MEAN_INCIDENCE_AZIMUTH_ANGLE_B12_cos","MEAN_INCIDENCE_AZIMUTH_ANGLE_B12_sin","MEAN_INCIDENCE_AZIMUTH_ANGLE_B1_cos","MEAN_INCIDENCE_AZIMUTH_ANGLE_B1_sin","MEAN_INCIDENCE_AZIMUTH_ANGLE_B2_cos","MEAN_INCIDENCE_AZIMUTH_ANGLE_B2_sin","MEAN_INCIDENCE_AZIMUTH_ANGLE_B3_cos","MEAN_INCIDENCE_AZIMUTH_ANGLE_B3_sin","MEAN_INCIDENCE_AZIMUTH_ANGLE_B4_cos","MEAN_INCIDENCE_AZIMUTH_ANGLE_B4_sin","MEAN_INCIDENCE_AZIMUTH_ANGLE_B5_cos","MEAN_INCIDENCE_AZIMUTH_ANGLE_B5_sin","MEAN_INCIDENCE_AZIMUTH_ANGLE_B6_cos","MEAN_INCIDENCE_AZIMUTH_ANGLE_B6_sin","MEAN_INCIDENCE_AZIMUTH_ANGLE_B7_cos","MEAN_INCIDENCE_AZIMUTH_ANGLE_B7_sin","MEAN_INCIDENCE_AZIMUTH_ANGLE_B8A_cos","MEAN_INCIDENCE_AZIMUTH_ANGLE_B8A_sin","MEAN_INCIDENCE_AZIMUTH_ANGLE_B8_cos","MEAN_INCIDENCE_AZIMUTH_ANGLE_B8_sin","MEAN_INCIDENCE_AZIMUTH_ANGLE_B9_cos","MEAN_INCIDENCE_AZIMUTH_ANGLE_B9_sin","MEAN_INCIDENCE_ZENITH_ANGLE_B10_cos","MEAN_INCIDENCE_ZENITH_ANGLE_B10_scaled","MEAN_INCIDENCE_ZENITH_ANGLE_B11_cos","MEAN_INCIDENCE_ZENITH_ANGLE_B11_scaled","MEAN_INCIDENCE_ZENITH_ANGLE_B12_cos","MEAN_INCIDENCE_ZENITH_ANGLE_B12_scaled","MEAN_INCIDENCE_ZENITH_ANGLE_B1_cos","MEAN_INCIDENCE_ZENITH_ANGLE_B1_scaled","MEAN_INCIDENCE_ZENITH_ANGLE_B2_cos","MEAN_INCIDENCE_ZENITH_ANGLE_B2_scaled","MEAN_INCIDENCE_ZENITH_ANGLE_B3_cos","MEAN_INCIDENCE_ZENITH_ANGLE_B3_scaled","MEAN_INCIDENCE_ZENITH_ANGLE_B4_cos","MEAN_INCIDENCE_ZENITH_ANGLE_B4_scaled","MEAN_INCIDENCE_ZENITH_ANGLE_B5_cos","MEAN_INCIDENCE_ZENITH_ANGLE_B5_scaled","MEAN_INCIDENCE_ZENITH_ANGLE_B6_cos","MEAN_INCIDENCE_ZENITH_ANGLE_B6_scaled","MEAN_INCIDENCE_ZENITH_ANGLE_B7_cos","MEAN_INCIDENCE_ZENITH_ANGLE_B7_scaled","MEAN_INCIDENCE_ZENITH_ANGLE_B8A_cos","MEAN_INCIDENCE_ZENITH_ANGLE_B8A_scaled","MEAN_INCIDENCE_ZENITH_ANGLE_B8_cos","MEAN_INCIDENCE_ZENITH_ANGLE_B8_scaled","MEAN_INCIDENCE_ZENITH_ANGLE_B9_cos","MEAN_INCIDENCE_ZENITH_ANGLE_B9_scaled","MEAN_SOLAR_AZIMUTH_ANGLE_cos","MEAN_SOLAR_AZIMUTH_ANGLE_sin","REFLECTANCE_CONVERSION_CORRECTION","SOLAR_IRRADIANCE_B1","SOLAR_IRRADIANCE_B10","SOLAR_IRRADIANCE_B11","SOLAR_IRRADIANCE_B12","SOLAR_IRRADIANCE_B2","SOLAR_IRRADIANCE_B3","SOLAR_IRRADIANCE_B4","SOLAR_IRRADIANCE_B5","SOLAR_IRRADIANCE_B6","SOLAR_IRRADIANCE_B7","SOLAR_IRRADIANCE_B8","SOLAR_IRRADIANCE_B8A","SOLAR_IRRADIANCE_B9","chl_ratio","chl_ratio_log1p","cloud_3d","cloud_3d_scaled","cloud_inst","cloud_inst_scaled","moisture_ratio","moisture_ratio_log1p","ndvi","precip_3d_sum","precip_3d_sum_log1p","precip_inst","precip_inst_log1p","rh_3d","rh_3d_scaled","rh_inst","rh_inst_scaled","sunshine_3d_sum_s","sunshine_3d_sum_s_scaled","sunshine_inst_s","sunshine_inst_s_scaled","swrad_3d_sum","swrad_3d_sum_scaled","swrad_inst","swrad_inst_scaled","t2m_3d","t2m_3d_scaled","t2m_inst","t2m_inst_scaled","turbidity_ratio","turbidity_ratio_log1p","ws10_3d","ws10_3d_scaled","ws10_inst","ws10_inst_scaled"],"feature_types":["float","float","float","float","float","float","float","float","float","float","float","float","float","float","float","float","float","float","float","float","float","float","float","float","float","float","float","float","float","float","float","float","float","float","float","float","float","float","float","float","float","float","float","float","float","float","float","float","float","float","float","float","float","float","float","float","float","float","float","float","float","float","float","float","float","float","float","float","float","float","float","float","float","float","float","float","float","float","float","float","float","float","float","float","float","float","float","float","float","float","float","float","float","float","float","float","float","float","float","float","float","float","float","float","float","float","float","float","float","float","float","float","float","float","float","float","float"],"gradient_booster":{"model":{"gbtree_model_param":{"num_parallel_tree":"1","num_trees":"363"},"iteration_indptr":[0,1,2,3,4,5,6,7,8,9,10,11,12,13,14,15,16,17,18,19,20,21,22,23,24,25,26,27,28,29,30,31,32,33,34,35,36,37,38,39,40,41,42,43,44,45,46,47,48,49,50,51,52,53,54,55,56,57,58,59,60,61,62,63,64,65,66,67,68,69,70,71,72,73,74,75,76,77,78,79,80,81,82,83,84,85,86,87,88,89,90,91,92,93,94,95,96,97,98,99,100,101,102,103,104,105,106,107,108,109,110,111,112,113,114,115,116,117,118,119,120,121,122,123,124,125,126,127,128,129,130,131,132,133,134,135,136,137,138,139,140,141,142,143,144,145,146,147,148,149,150,151,152,153,154,155,156,157,158,159,160,161,162,163,164,165,166,167,168,169,170,171,172,173,174,175,176,177,178,179,180,181,182,183,184,185,186,187,188,189,190,191,192,193,194,195,196,197,198,199,200,201,202,203,204,205,206,207,208,209,210,211,212,213,214,215,216,217,218,219,220,221,222,223,224,225,226,227,228,229,230,231,232,233,234,235,236,237,238,239,240,241,242,243,244,245,246,247,248,249,250,251,252,253,254,255,256,257,258,259,260,261,262,263,264,265,266,267,268,269,270,271,272,273,274,275,276,277,278,279,280,281,282,283,284,285,286,287,288,289,290,291,292,293,294,295,296,297,298,299,300,301,302,303,304,305,306,307,308,309,310,311,312,313,314,315,316,317,318,319,320,321,322,323,324,325,326,327,328,329,330,331,332,333,334,335,336,337,338,339,340,341,342,343,344,345,346,347,348,349,350,351,352,353,354,355,356,357,358,359,360,361,362,363],"tree_info":[0,0,0,0,0,0,0,0,0,0,0,0,0,0,0,0,0,0,0,0,0,0,0,0,0,0,0,0,0,0,0,0,0,0,0,0,0,0,0,0,0,0,0,0,0,0,0,0,0,0,0,0,0,0,0,0,0,0,0,0,0,0,0,0,0,0,0,0,0,0,0,0,0,0,0,0,0,0,0,0,0,0,0,0,0,0,0,0,0,0,0,0,0,0,0,0,0,0,0,0,0,0,0,0,0,0,0,0,0,0,0,0,0,0,0,0,0,0,0,0,0,0,0,0,0,0,0,0,0,0,0,0,0,0,0,0,0,0,0,0,0,0,0,0,0,0,0,0,0,0,0,0,0,0,0,0,0,0,0,0,0,0,0,0,0,0,0,0,0,0,0,0,0,0,0,0,0,0,0,0,0,0,0,0,0,0,0,0,0,0,0,0,0,0,0,0,0,0,0,0,0,0,0,0,0,0,0,0,0,0,0,0,0,0,0,0,0,0,0,0,0,0,0,0,0,0,0,0,0,0,0,0,0,0,0,0,0,0,0,0,0,0,0,0,0,0,0,0,0,0,0,0,0,0,0,0,0,0,0,0,0,0,0,0,0,0,0,0,0,0,0,0,0,0,0,0,0,0,0,0,0,0,0,0,0,0,0,0,0,0,0,0,0,0,0,0,0,0,0,0,0,0,0,0,0,0,0,0,0,0,0,0,0,0,0,0,0,0,0,0,0,0,0,0,0,0,0,0,0,0,0,0,0,0,0,0,0,0,0,0,0,0,0,0,0,0,0,0,0,0,0,0,0,0,0,0,0,0,0,0,0,0,0],"trees":[{"base_weights":[-3.0856605E-3,-8.536901E0,2.5396965E0,-1.4499903E1,-6.6624556E0,2.9060414E-1,5.5118184E0,-1.7586433E1,-1.2305081E1,-8.149047E0,-3.7064931E0,-1.1824931E0,4.1887345E0,3.9871206E0,5.9936953E0,-2.5536788E0,-2.0852547E0,-1.3158319E1,-9.355355E0,-9.1411915E0,-6.4381714E0,-4.8856025E0,-2.9892886E0,-2.9488127E0,3.378485E-1,2.140859E0,5.1341786E0,3.274357E0,4.598854E0,6.2873936E0,5.004563E0,-1.3300661E1,-9.515939E-1,-1.3364844E0,-5.014344E-1,-9.738336E0,-7.3774896E0,-9.12732E0,-6.1090775E0,-5.4494877E0,-1.9565052E0,-3.462391E0,-2.2209094E0,-8.425695E0,-2.538067E0,-1.0095285E0,1.5413785E0,2.0527044E-1,2.5007463E0,3.8246927E0,5.88771E0,1.8915864E0,3.385219E0,3.4986646E0,4.8407893E0,6.4456964E0,5.1951675E0,4.9131136E0,1.1276672E0,-2.12002E0,-1.7676127E0,-1.0934913E1,-9.171259E0,-8.298445E0,-6.534136E0,-1.3121854E0,-3.8600668E-1,-6.3511267E0,-3.4572816E0,-5.9032183E0,-4.521332E0,-2.5781686E0,-4.570567E-1,-3.5732856E0,-3.4821108E-1,1.0456756E-1,-2.4877062E0,-1.0551537E1,-2.7589436E0,-2.316828E0,-1.2459271E1,-3.1775463E0,-6.4164335E-1,6.6392267E-1,2.4120424E0,-4.7893977E-1,1.3042175E0,1.9535851E0,3.0544245E0,-7.404765E-1,4.023631E0,6.272351E0,4.511107E0,9.6807176E-1,3.4224647E-1,3.4297678E0,9.7209084E-1,-6.481911E-1,3.6880012E0,2.6424317E-2,4.872022E0,5.8957753E0,6.6994853E0,3.68324E0,5.3568187E0,5.4157486E0,4.679261E0,-5.558309E-1,-1.5380404E0,-2.9081574E-1,-1.2874558E0,-1.2574785E0,-9.5462996E-1,-7.7627754E-1,-1.0344479E0,-3.6846572E-1,-8.986374E-1,-5.396143E-1,-1.5271184E-1,-1.7639881E-1,-8.2967734E-1,-6.580804E-1,-2.8960574E-1,-1.507497E-2,-3.9175612E-1,5.6649767E-2,-2.2014688E-1,-3.3243892E-1,-5.48184E-1,-1.4380763E-1,7.9385094E-2,-4.998176E-2,2.6424116E-1,-1.3882905E-1,-4.0164575E-1,-1.0864016E0,-2.0087867E0,-6.8755287E-1,-2.566001E-1,-1.017441E0,-2.7205312E-1,2.7365362E-2,-1.9737473E0,-5.007493E-1,-2.733402E-1,-6.142308E-2,-2.2996722E-1,1.4718121E-1,-7.314637E-2,4.2951795E-1,2.1836959E-1,1.9248266E-2,-1.3645163E-1,2.1715549E-1,-1.6797228E-2,1.4879088E-1,3.3997008E-1,3.5509315E-1,5.0726604E-1,2.4694584E-1,-2.0165785E-1,7.227E-1,4.00079E-1,9.0283316E-1,7.18382E-1,6.345229E-1,1.1043352E-1,1.6914757E-1,-1.8337296E-2,5.114741E-1,4.2676675E-1,-1.08925104E-1,2.5811824E-1,3.8336876E-1,5.7776344E-1,1.0123798E-1,-8.92391E-2,6.41321E-1,7.5650406E-1,6.5801555E-1,8.395402E-1,9.284547E-1,1.2350637E0,-1.225495E-3,5.370883E-1,7.5079703E-1,1.866244E-1,8.3933294E-1,6.7370164E-1,1.5385547E-1,6.5666515E-1],"categories":[],"categories_nodes":[],"categories_segments":[],"categories_sizes":[],"default_left":[0,0,1,0,1,0,0,0,1,0,0,1,0,1,0,0,0,0,0,0,0,0,0,0,0,0,0,0,0,0,0,0,0,0,0,0,0,0,0,0,0,0,0,1,0,0,0,1,0,0,0,0,0,0,0,0,0,0,0,0,0,0,0,0,0,0,0,0,0,0,0,0,0,0,0,0,0,0,0,0,0,0,0,0,0,0,0,1,0,0,0,0,1,0,0,0,0,0,0,0,0,0,0,0,0,0,0,0,0,0,0,0,0,0,0,0,0,0,0,0,0,0,0,0,0,0,0,0,0,0,0,0,0,0,0,0,0,0,0,0,0,0,0,0,0,0,0,0,0,0,0,0,0,0,0,0,0,0,0,0,0,0,0,0,0,0,0,0,0,0,0,0,0,0,0,0,0,0,0,0,0,0,0,0,0,0,0,0,0,0,0],"id":0,"left_children":[1,3,5,7,9,11,13,15,17,19,21,23,25,27,29,-1,-1,31,33,35,37,39,41,43,45,47,49,51,53,55,57,59,-1,-1,-1,61,63,65,67,69,71,73,75,77,79,81,83,85,87,89,91,93,95,97,99,101,103,105,-1,-1,-1,107,109,111,113,-1,-1,115,117,119,121,123,125,127,129,131,133,135,137,139,141,143,145,147,149,151,153,155,157,159,161,163,165,167,-1,169,171,-1,173,175,177,179,181,183,185,187,189,-1,-1,-1,-1,-1,-1,-1,-1,-1,-1,-1,-1,-1,-1,-1,-1,-1,-1,-1,-1,-1,-1,-1,-1,-1,-1,-1,-1,-1,-1,-1,-1,-1,-1,-1,-1,-1,-1,-1,-1,-1,-1,-1,-1,-1,-1,-1,-1,-1,-1,-1,-1,-1,-1,-1,-1,-1,-1,-1,-1,-1,-1,-1,-1,-1,-1,-1,-1,-1,-1,-1,-1,-1,-1,-1,-1,-1,-1,-1,-1,-1,-1,-1,-1],"loss_changes":[1.9133188E5,2.2513156E4,4.5406805E4,3.025586E3,6.741297E3,2.2217947E4,2.1218984E3,4.708203E1,5.7890234E2,1.6720859E3,4.2088623E2,7.5423604E3,2.0413711E3,2.9009863E2,6.0860156E2,0E0,0E0,9.396484E1,3.941797E1,5.9766797E2,2.7193066E2,3.0785986E2,1.0894165E2,2.897288E3,2.4506482E3,2.339917E2,6.891172E2,4.285034E1,8.042627E1,2.563672E2,9.782031E1,4.2554688E1,0E0,0E0,0E0,2.09875E2,6.788281E1,3.340161E1,1.938291E2,3.7101074E1,2.9247375E1,6.6971436E1,7.940668E1,1.0515518E3,2.6221143E3,5.6609467E2,6.0763025E2,4.1487946E1,7.88396E1,2.4720386E2,2.0955371E2,1.0910339E1,2.8489746E1,1.3028894E2,4.5395996E1,1.6169531E2,3.1109863E1,2.9401367E1,0E0,0E0,0E0,1.4986328E1,6.098047E1,6.864746E0,3.1367432E1,0E0,0E0,6.717285E1,2.4314758E1,5.440674E0,1.4627319E1,1.2129257E1,1.1557072E1,6.855127E1,5.769434E0,1.2567835E1,6.1999756E1,5.628955E2,4.1233627E1,2.16546E3,5.5186084E2,4.2416138E1,1.23024155E2,1.8477791E2,2.1854468E2,1.0690888E1,7.838375E0,5.8812683E1,3.0055664E1,2.4172155E1,3.2464258E2,3.55459E1,5.678711E0,3.5070724E0,0E0,1.2397461E1,1.2637185E1,0E0,1.639331E1,1.9807439E0,1.7745117E1,2.8570312E1,6.1273438E1,1.5039581E1,1.0043945E0,1.962207E1,1.4521484E1,0E0,0E0,0E0,0E0,0E0,0E0,0E0,0E0,0E0,0E0,0E0,0E0,0E0,0E0,0E0,0E0,0E0,0E0,0E0,0E0,0E0,0E0,0E0,0E0,0E0,0E0,0E0,0E0,0E0,0E0,0E0,0E0,0E0,0E0,0E0,0E0,0E0,0E0,0E0,0E0,0E0,0E0,0E0,0E0,0E0,0E0,0E0,0E0,0E0,0E0,0E0,0E0,0E0,0E0,0E0,0E0,0E0,0E0,0E0,0E0,0E0,0E0,0E0,0E0,0E0,0E0,0E0,0E0,0E0,0E0,0E0,0E0,0E0,0E0,0E0,0E0,0E0,0E0,0E0,0E0,0E0,0E0,0E0,0E0],"parents":[2147483647,0,0,1,1,2,2,3,3,4,4,5,5,6,6,7,7,8,8,9,9,10,10,11,11,12,12,13,13,14,14,17,17,18,18,19,19,20,20,21,21,22,22,23,23,24,24,25,25,26,26,27,27,28,28,29,29,30,30,31,31,35,35,36,36,37,37,38,38,39,39,40,40,41,41,42,42,43,43,44,44,45,45,46,46,47,47,48,48,49,49,50,50,51,51,52,52,53,53,54,54,55,55,56,56,57,57,61,61,62,62,63,63,64,64,67,67,68,68,69,69,70,70,71,71,72,72,73,73,74,74,75,75,76,76,77,77,78,78,79,79,80,80,81,81,82,82,83,83,84,84,85,85,86,86,87,87,88,88,89,89,90,90,91,91,92,92,93,93,95,95,96,96,98,98,99,99,100,100,101,101,102,102,103,103,104,104,105,105,106,106],"right_children":[2,4,6,8,10,12,14,16,18,20,22,24,26,28,30,-1,-1,32,34,36,38,40,42,44,46,48,50,52,54,56,58,60,-1,-1,-1,62,64,66,68,70,72,74,76,78,80,82,84,86,88,90,92,94,96,98,100,102,104,106,-1,-1,-1,108,110,112,114,-1,-1,116,118,120,122,124,126,128,130,132,134,136,138,140,142,144,146,148,150,152,154,156,158,160,162,164,166,168,-1,170,172,-1,174,176,178,180,182,184,186,188,190,-1,-1,-1,-1,-1,-1,-1,-1,-1,-1,-1,-1,-1,-1,-1,-1,-1,-1,-1,-1,-1,-1,-1,-1,-1,-1,-1,-1,-1,-1,-1,-1,-1,-1,-1,-1,-1,-1,-1,-1,-1,-1,-1,-1,-1,-1,-1,-1,-1,-1,-1,-1,-1,-1,-1,-1,-1,-1,-1,-1,-1,-1,-1,-1,-1,-1,-1,-1,-1,-1,-1,-1,-1,-1,-1,-1,-1,-1,-1,-1,-1,-1,-1,-1],"split_conditions":[6.6933334E-1,5.52E-1,2.5333334E1,8.366667E0,1.6733334E1,7.7068967E-1,2.6633333E1,4.92E-1,1.2566667E1,6.053333E-1,1.85E1,6.933333E-1,9.4E-1,7.6E-1,9.898594E-1,-2.5536788E0,-2.0852547E0,5.186362E-1,2.0033333E1,4.9281764E-1,1.34E1,6.5024185E-1,2.0966667E1,2.8377756E-1,2.31E1,2.2466667E1,9.159177E-1,5.9E1,2.5833334E1,2.2066668E1,2.9166666E1,5.053333E-1,-9.515939E-1,-1.3364844E0,-5.014344E-1,1.24E1,1.0313337E0,8.54E2,6.056109E-1,1.7866667E1,8.6833084E-1,7.4281716E-1,1.8721744E-2,1.6566668E1,9.9910116E-1,1.93E1,7.3466665E-1,7.08E-1,2.43E1,9.850018E-1,9.742862E-1,7.64E2,2.6868945E-1,2.2E0,3.158189E-1,2.75E1,2.7233334E1,9.9523103E-1,1.1276672E0,-2.12002E0,-1.7676127E0,2.357676E4,7.86168E-1,1.39E1,9.7363E-1,-1.3121854E0,-3.8600668E-1,-9.98491E-1,8.84E2,6E0,9.785846E-1,9.844317E-1,1.35912E0,-9.700623E-1,4.6083227E-2,1.027686E5,-9.6687883E-1,1.4316618E-1,1.6573322E0,1.7266666E1,-9.9972874E-1,1.99803E1,1.0316991E0,8.024E1,1.0108063E0,1.3046452E5,8.312067E-1,7.2933334E-1,7.48E-1,6.0692422E-2,9.776138E-1,9.3349713E-1,9.5E-1,1.0897374E5,3.4224647E-1,1.9833334E1,2.8555265E-1,-6.481911E-1,7.2442234E-1,1.07309714E-1,9.159177E-1,1.6295E0,3.13E1,1.0433933E0,6.812312E-2,1.4233334E1,4.8E1,-5.558309E-1,-1.5380404E0,-2.9081574E-1,-1.2874558E0,-1.2574785E0,-9.5462996E-1,-7.7627754E-1,-1.0344479E0,-3.6846572E-1,-8.986374E-1,-5.396143E-1,-1.5271184E-1,-1.7639881E-1,-8.2967734E-1,-6.580804E-1,-2.8960574E-1,-1.507497E-2,-3.9175612E-1,5.6649767E-2,-2.2014688E-1,-3.3243892E-1,-5.48184E-1,-1.4380763E-1,7.9385094E-2,-4.998176E-2,2.6424116E-1,-1.3882905E-1,-4.0164575E-1,-1.0864016E0,-2.0087867E0,-6.8755287E-1,-2.566001E-1,-1.017441E0,-2.7205312E-1,2.7365362E-2,-1.9737473E0,-5.007493E-1,-2.733402E-1,-6.142308E-2,-2.2996722E-1,1.4718121E-1,-7.314637E-2,4.2951795E-1,2.1836959E-1,1.9248266E-2,-1.3645163E-1,2.1715549E-1,-1.6797228E-2,1.4879088E-1,3.3997008E-1,3.5509315E-1,5.0726604E-1,2.4694584E-1,-2.0165785E-1,7.227E-1,4.00079E-1,9.0283316E-1,7.18382E-1,6.345229E-1,1.1043352E-1,1.6914757E-1,-1.8337296E-2,5.114741E-1,4.2676675E-1,-1.08925104E-1,2.5811824E-1,3.8336876E-1,5.7776344E-1,1.0123798E-1,-8.92391E-2,6.41321E-1,7.5650406E-1,6.5801555E-1,8.395402E-1,9.284547E-1,1.2350637E0,-1.225495E-3,5.370883E-1,7.5079703E-1,1.866244E-1,8.3933294E-1,6.7370164E-1,1.5385547E-1,6.5666515E-1],"split_indices":[110,110,107,107,107,67,107,110,107,110,107,110,84,110,68,0,0,67,107,67,107,67,107,67,107,107,67,97,107,113,107,110,0,0,0,107,82,105,67,107,67,67,9,107,48,107,110,110,107,40,68,105,14,115,67,107,107,68,0,0,0,99,82,107,68,0,0,19,105,113,17,50,111,37,11,99,15,0,111,107,22,13,68,103,68,99,88,110,110,1,68,88,84,99,0,113,14,0,67,0,67,13,107,111,11,113,97,0,0,0,0,0,0,0,0,0,0,0,0,0,0,0,0,0,0,0,0,0,0,0,0,0,0,0,0,0,0,0,0,0,0,0,0,0,0,0,0,0,0,0,0,0,0,0,0,0,0,0,0,0,0,0,0,0,0,0,0,0,0,0,0,0,0,0,0,0,0,0,0,0,0,0,0,0,0,0,0,0,0,0,0],"split_type":[0,0,0,0,0,0,0,0,0,0,0,0,0,0,0,0,0,0,0,0,0,0,0,0,0,0,0,0,0,0,0,0,0,0,0,0,0,0,0,0,0,0,0,0,0,0,0,0,0,0,0,0,0,0,0,0,0,0,0,0,0,0,0,0,0,0,0,0,0,0,0,0,0,0,0,0,0,0,0,0,0,0,0,0,0,0,0,0,0,0,0,0,0,0,0,0,0,0,0,0,0,0,0,0,0,0,0,0,0,0,0,0,0,0,0,0,0,0,0,0,0,0,0,0,0,0,0,0,0,0,0,0,0,0,0,0,0,0,0,0,0,0,0,0,0,0,0,0,0,0,0,0,0,0,0,0,0,0,0,0,0,0,0,0,0,0,0,0,0,0,0,0,0,0,0,0,0,0,0,0,0,0,0,0,0,0,0,0,0,0,0],"sum_hessian":[8.815E3,2.023E3,6.792E3,4.82E2,1.541E3,3.867E3,2.925E3,1.97E2,2.85E2,1.024E3,5.17E2,2.807E3,1.06E3,7.05E2,2.22E3,1.52E2,4.5E1,2.18E2,6.7E1,6.45E2,3.79E2,1.93E2,3.24E2,1.298E3,1.509E3,3.36E2,7.24E2,3.29E2,3.76E2,1.707E3,5.13E2,2.12E2,6E0,6.4E1,3E0,4.78E2,1.67E2,3.8E1,3.41E2,1.61E2,3.2E1,1.98E2,1.26E2,8.9E1,1.209E3,7.12E2,7.97E2,5.3E1,2.83E2,2.67E2,4.57E2,2.6E1,3.03E2,7.1E1,3.05E2,1.486E3,2.21E2,5.01E2,1.2E1,4.9E1,1.63E2,1.47E2,3.31E2,7.5E1,9.2E1,3.6E1,2E0,3.11E2,3E1,1.04E2,5.7E1,2.2E1,1E1,1.91E2,7E0,1.3E1,1.13E2,6.4E1,2.5E1,1.184E3,2.5E1,1.02E2,6.1E2,3.98E2,3.99E2,3.3E1,2E1,1.45E2,1.38E2,1.1E1,2.56E2,3.54E2,1.03E2,1.1E1,1.5E1,2.97E2,6E0,1E0,7E1,2E0,3.03E2,4.78E2,1.008E3,2.4E1,1.97E2,1.51E2,3.5E2,2E0,1.45E2,2E0,3.29E2,4.7E1,2.8E1,4.7E1,4.5E1,7E0,3.04E2,2.5E1,5E0,1E0,1.03E2,5.2E1,5E0,2E0,2E1,6E0,4E0,4.5E1,1.46E2,4E0,3E0,1.1E1,2E0,2.4E1,8.9E1,3.9E1,2.5E1,6E0,1.9E1,8.1E1,1.103E3,3E0,2.2E1,7.5E1,2.7E1,5.09E2,1.01E2,3E2,9.8E1,2.23E2,1.76E2,1.5E1,1.8E1,1.7E1,3E0,5.2E1,9.3E1,7.6E1,6.2E1,2E0,9E0,1.27E2,1.29E2,3E2,5.4E1,1.02E2,1E0,9E0,2E0,1.79E2,1.18E2,2E0,4E0,2.5E1,4.5E1,1E0,1E0,2.05E2,9.8E1,4.4E1,4.34E2,9.85E2,2.3E1,1E0,2.3E1,1.96E2,1E0,7.1E1,8E1,2E0,3.48E2],"tree_param":{"num_deleted":"0","num_feature":"117","num_nodes":"191","size_leaf_vector":"1"}},{"base_weights":[-3.6282728E-3,-7.2175336E0,2.253814E0,-1.1937557E1,-5.451899E0,3.0295816E-1,4.7362843E0,-2.1605268E0,-1.038373E1,-6.683351E0,-2.9722497E0,-9.676868E-1,3.6500092E0,3.4619954E0,5.1516066E0,-1.1250649E1,-8.646692E0,-7.5705414E0,-5.4865055E0,-3.4778252E0,-1.8788346E0,-2.1625447E0,5.732129E-1,1.8634638E0,4.48063E0,2.8018343E0,4.0243897E0,5.368662E0,4.2623873E0,-1.2534447E1,-1.0402442E1,-8.924035E0,-6.3870084E-1,-8.043108E0,-6.11443E0,-6.2854342E0,-4.163811E0,-3.789621E0,-2.3063006E0,-1.1783626E0,-1.7797619E0,-1.2685274E1,-1.9509197E0,-8.700339E-1,1.416717E0,8.030955E-1,2.2921164E0,5.1848135E0,3.34662E0,1.5559962E0,2.9386537E0,3.2631247E0,4.251724E0,5.6417E0,4.8712993E0,4.171736E0,9.910403E-1,-3.2519358E-1,-1.2610707E1,-1.0512119E1,-6.499108E-1,-1.2622869E0,-4.6773076E-1,1.496755E-1,-8.06695E0,-6.3181677E0,-6.100202E-1,-7.0719004E0,-5.718669E0,-5.580802E0,-3.5660877E0,-4.525469E0,-3.3275843E0,-2.765099E0,-6.6075385E-1,-2.116794E0,-6.480725E-1,-1.3847675E1,-1.5551023E0,-6.3421617E0,-1.6410315E0,-2.0598965E0,-4.9112824E-1,7.0031285E-1,2.0382729E0,-1.05392896E-1,1.5596027E0,1.7652348E0,2.6870017E0,-3.130225E-1,5.3022695E0,3.7671897E0,2.584111E0,1.9344705E0,5.0056577E-1,2.9780254E0,1.0742675E0,-1.4320599E0,3.3823912E0,4.525969E0,3.714141E0,5.1351323E0,5.922939E0,4.5144973E0,5.420566E0,3.7998793E0,4.372136E0,-1.7724066E0,-4.13049E-1,-6.534118E-1,-1.4807256E0,-1.1765453E0,-9.7375315E-1,-9.869963E-1,-8.048639E-1,-9.9984646E-1,8.407125E-2,-5.479323E-1,-8.342012E-1,-8.3631796E-1,-2.4091338E-1,-5.314974E-1,-2.2593011E-1,-6.8746084E-1,-5.3977484E-1,-9.6094795E-2,-4.7791865E-1,-1.4199178E-1,-4.012554E-1,3.005715E-2,-3.3997166E-1,-3.378262E-1,-9.448717E-2,-1.3983735E-1,1.5046006E-1,-1.981543E0,-3.4922165E-1,-6.99465E-2,-3.1237665E-1,-1.1534017E0,-7.275228E-1,-3.2485598E-1,1.2244948E-3,-5.7963634E-1,-2.4730752E-1,-2.2012526E-2,-2.125276E-1,2.3835404E-2,1.6926095E-1,3.7853742E-1,1.7363544E-1,1.8376948E-2,-1.3259241E-1,2.8265724E-1,4.9322464E-2,2.6867902E-1,1.0804959E-1,2.5439635E-1,3.9855838E-1,1.9881278E-1,-1.793031E-1,3.8027567E-1,7.554138E-1,5.626686E-1,3.2592687E-1,2.4657613E-1,4.379397E-1,1.318272E-1,3.0376115E-1,9.626459E-2,-2.7424103E-2,3.9620638E-1,4.9041945E-1,-9.9189274E-2,2.5216314E-1,3.0473277E-1,-6.0561675E-1,1.7339061E-1,4.912086E-1,4.2735755E-1,6.4875287E-1,5.2645683E-1,-1.0246233E-1,5.4892194E-1,7.409025E-1,8.405592E-1,7.063144E-1,4.09597E-1,6.430587E-1,2.852791E-1,7.604838E-1,4.54271E-1,5.635679E-1,5.699437E-1,6.594451E-1],"categories":[],"categories_nodes":[],"categories_segments":[],"categories_sizes":[],"default_left":[0,0,1,0,1,0,0,0,1,0,0,1,0,1,0,0,0,0,0,0,0,0,0,0,0,0,0,0,0,0,0,0,0,0,0,0,0,0,0,0,0,1,0,0,0,0,0,0,0,0,0,0,0,0,0,0,0,0,0,0,0,0,0,0,1,0,0,0,0,0,1,0,0,0,0,0,0,0,0,0,0,0,0,1,0,0,0,0,0,0,0,0,0,0,0,0,0,0,0,0,0,0,0,0,0,1,0,0,0,0,0,0,0,0,0,0,0,0,0,0,0,0,0,0,0,0,0,0,0,0,0,0,0,0,0,0,0,0,0,0,0,0,0,0,0,0,0,0,0,0,0,0,0,0,0,0,0,0,0,0,0,0,0,0,0,0,0,0,0,0,0,0,0,0,0,0,0,0,0,0,0,0,0,0,0,0,0,0,0,0,0,0,0,0,0],"id":1,"left_children":[1,3,5,7,9,11,13,-1,15,17,19,21,23,25,27,29,31,33,35,37,39,41,43,45,47,49,51,53,55,57,59,61,-1,63,65,67,69,71,73,-1,75,77,79,81,83,85,87,89,91,93,95,97,99,101,103,105,-1,-1,107,109,-1,-1,-1,-1,111,113,-1,115,117,119,121,123,125,127,129,131,133,135,137,139,141,143,145,147,149,151,153,155,157,159,161,163,165,167,169,171,173,175,177,179,181,183,185,187,189,191,193,-1,-1,-1,-1,-1,-1,-1,-1,-1,-1,-1,-1,-1,-1,-1,-1,-1,-1,-1,-1,-1,-1,-1,-1,-1,-1,-1,-1,-1,-1,-1,-1,-1,-1,-1,-1,-1,-1,-1,-1,-1,-1,-1,-1,-1,-1,-1,-1,-1,-1,-1,-1,-1,-1,-1,-1,-1,-1,-1,-1,-1,-1,-1,-1,-1,-1,-1,-1,-1,-1,-1,-1,-1,-1,-1,-1,-1,-1,-1,-1,-1,-1,-1,-1,-1,-1,-1,-1],"loss_changes":[1.438336E5,1.746857E4,3.2576977E4,2.9390625E3,4.661176E3,1.6029782E4,1.545625E3,0E0,4.9071875E2,1.0392539E3,2.746416E2,5.031834E3,1.5289775E3,2.580332E2,4.036328E2,1.3702734E2,1.0890332E2,3.456914E2,4.345078E2,1.16686035E2,8.851941E1,3.3980396E3,1.4551604E3,1.4812012E2,5.4423535E2,5.2364502E1,5.1447266E1,2.107461E2,7.896289E1,4.2573242E1,4.754883E1,3.815039E1,0E0,1.0564453E2,2.0690918E1,7.436133E1,1.1986328E2,7.5073975E1,5.507013E1,0E0,6.0394653E1,3.6394775E2,2.0424263E3,1.9748386E2,3.33917E2,6.708565E1,4.3119995E1,2.827119E2,7.628418E1,1.3095085E1,1.8380371E1,5.893402E1,2.415039E1,1.27984375E2,9.722266E1,1.2628418E1,0E0,0E0,1.6873047E1,1.4865234E1,0E0,0E0,0E0,0E0,9.956055E1,7.0146484E0,0E0,7.096045E1,4.5558105E1,6.1840454E1,4.8440308E1,4.2487793E0,3.788269E1,7.117096E0,2.8918268E1,5.177478E1,2.4948143E1,5.7733887E1,1.4215221E0,1.6550928E2,1.5892742E3,5.5609528E1,1.1495113E2,9.48033E1,2.1054858E2,9.229313E0,2.8563873E1,1.4191345E1,1.2385925E1,1.9074547E1,9.2206055E1,5.2944824E1,3.8736145E1,3.5380936E0,1.6580276E0,1.0968262E1,1.212301E1,4.362606E1,2.0609497E1,1.5238525E1,2.7540771E1,5.8135742E1,2.0664062E1,3.6868652E1,1.5771484E0,4.821045E0,5.239746E0,0E0,0E0,0E0,0E0,0E0,0E0,0E0,0E0,0E0,0E0,0E0,0E0,0E0,0E0,0E0,0E0,0E0,0E0,0E0,0E0,0E0,0E0,0E0,0E0,0E0,0E0,0E0,0E0,0E0,0E0,0E0,0E0,0E0,0E0,0E0,0E0,0E0,0E0,0E0,0E0,0E0,0E0,0E0,0E0,0E0,0E0,0E0,0E0,0E0,0E0,0E0,0E0,0E0,0E0,0E0,0E0,0E0,0E0,0E0,0E0,0E0,0E0,0E0,0E0,0E0,0E0,0E0,0E0,0E0,0E0,0E0,0E0,0E0,0E0,0E0,0E0,0E0,0E0,0E0,0E0,0E0,0E0,0E0,0E0,0E0,0E0,0E0,0E0],"parents":[2147483647,0,0,1,1,2,2,3,3,4,4,5,5,6,6,8,8,9,9,10,10,11,11,12,12,13,13,14,14,15,15,16,16,17,17,18,18,19,19,20,20,21,21,22,22,23,23,24,24,25,25,26,26,27,27,28,28,29,29,30,30,31,31,33,33,34,34,35,35,36,36,37,37,38,38,40,40,41,41,42,42,43,43,44,44,45,45,46,46,47,47,48,48,49,49,50,50,51,51,52,52,53,53,54,54,55,55,58,58,59,59,64,64,65,65,67,67,68,68,69,69,70,70,71,71,72,72,73,73,74,74,75,75,76,76,77,77,78,78,79,79,80,80,81,81,82,82,83,83,84,84,85,85,86,86,87,87,88,88,89,89,90,90,91,91,92,92,93,93,94,94,95,95,96,96,97,97,98,98,99,99,100,100,101,101,102,102,103,103,104,104,105,105,106,106],"right_children":[2,4,6,8,10,12,14,-1,16,18,20,22,24,26,28,30,32,34,36,38,40,42,44,46,48,50,52,54,56,58,60,62,-1,64,66,68,70,72,74,-1,76,78,80,82,84,86,88,90,92,94,96,98,100,102,104,106,-1,-1,108,110,-1,-1,-1,-1,112,114,-1,116,118,120,122,124,126,128,130,132,134,136,138,140,142,144,146,148,150,152,154,156,158,160,162,164,166,168,170,172,174,176,178,180,182,184,186,188,190,192,194,-1,-1,-1,-1,-1,-1,-1,-1,-1,-1,-1,-1,-1,-1,-1,-1,-1,-1,-1,-1,-1,-1,-1,-1,-1,-1,-1,-1,-1,-1,-1,-1,-1,-1,-1,-1,-1,-1,-1,-1,-1,-1,-1,-1,-1,-1,-1,-1,-1,-1,-1,-1,-1,-1,-1,-1,-1,-1,-1,-1,-1,-1,-1,-1,-1,-1,-1,-1,-1,-1,-1,-1,-1,-1,-1,-1,-1,-1,-1,-1,-1,-1,-1,-1,-1,-1,-1,-1],"split_conditions":[6.7333335E-1,5.5866665E-1,2.5333334E1,7.866667E0,1.7133333E1,-6.372107E-1,2.6666666E1,-2.1605268E0,1.1133333E1,6.053333E-1,2.06E1,7.0933336E-1,9.3333334E-1,7.6E-1,9.924304E-1,5.186667E-1,1.7733334E1,-8.618964E-1,7.18E1,-7.93247E-1,9.84245E-1,2.1932241E-1,2.2933332E1,2.32E1,9.7454387E-1,5.9E1,2.6E1,1.65E1,2.9166666E1,6E1,-8.4494245E-1,-8.146406E-1,-6.3870084E-1,4.6194408E-2,1.3743552E0,1.4833333E1,1.03E1,1.8166666E1,2.5743815E-1,-1.1783626E0,2.3433332E1,-1E-5,1.7133333E1,2.03E1,7.3466665E-1,-2.1321622E-1,7.413333E-1,9.850018E-1,9.8594403E-1,2.29E1,2.7930468E-1,2.2E0,9.9523103E-1,2.7533333E1,2.8566668E1,2.7266666E1,9.910403E-1,-3.2519358E-1,1.0342828E0,6.467E1,-6.499108E-1,-1.2622869E0,-4.6773076E-1,1.496755E-1,1.4066667E1,1.2966666E1,-6.100202E-1,3.0066668E1,9.797093E-1,1.3114542E0,8.592E1,6.4133334E-1,6.666667E-2,8.7881774E-1,8.7845856E-1,1.91357E3,6.626667E-1,1.4841722E-1,7.209427E-2,1.31E1,1.91357E3,4.1E1,5.466667E-1,4.67E1,1.0108063E0,7.68E-1,7.5E1,8.263E1,3.785E-1,7.631445E-2,-9.777674E-1,9.17992E-1,-2.212944E-1,1.04E1,4.8665E0,-2.9697597E-1,1.6166666E1,1.30491005E-2,7.0333336E1,7.1E1,2.1314819E-1,7.7E1,1.0103674E0,6.3E1,6.7400414E-1,7.586667E-1,7.8666664E1,-1.7724066E0,-4.13049E-1,-6.534118E-1,-1.4807256E0,-1.1765453E0,-9.7375315E-1,-9.869963E-1,-8.048639E-1,-9.9984646E-1,8.407125E-2,-5.479323E-1,-8.342012E-1,-8.3631796E-1,-2.4091338E-1,-5.314974E-1,-2.2593011E-1,-6.8746084E-1,-5.3977484E-1,-9.6094795E-2,-4.7791865E-1,-1.4199178E-1,-4.012554E-1,3.005715E-2,-3.3997166E-1,-3.378262E-1,-9.448717E-2,-1.3983735E-1,1.5046006E-1,-1.981543E0,-3.4922165E-1,-6.99465E-2,-3.1237665E-1,-1.1534017E0,-7.275228E-1,-3.2485598E-1,1.2244948E-3,-5.7963634E-1,-2.4730752E-1,-2.2012526E-2,-2.125276E-1,2.3835404E-2,1.6926095E-1,3.7853742E-1,1.7363544E-1,1.8376948E-2,-1.3259241E-1,2.8265724E-1,4.9322464E-2,2.6867902E-1,1.0804959E-1,2.5439635E-1,3.9855838E-1,1.9881278E-1,-1.793031E-1,3.8027567E-1,7.554138E-1,5.626686E-1,3.2592687E-1,2.4657613E-1,4.379397E-1,1.318272E-1,3.0376115E-1,9.626459E-2,-2.7424103E-2,3.9620638E-1,4.9041945E-1,-9.9189274E-2,2.5216314E-1,3.0473277E-1,-6.0561675E-1,1.7339061E-1,4.912086E-1,4.2735755E-1,6.4875287E-1,5.2645683E-1,-1.0246233E-1,5.4892194E-1,7.409025E-1,8.405592E-1,7.063144E-1,4.09597E-1,6.430587E-1,2.852791E-1,7.604838E-1,4.54271E-1,5.635679E-1,5.699437E-1,6.594451E-1],"split_indices":[110,110,107,107,107,66,107,0,107,110,107,110,84,110,68,110,107,66,103,66,40,67,107,107,68,97,107,113,107,95,66,66,0,4,82,107,115,107,90,0,107,86,107,107,110,22,110,40,68,115,30,115,68,107,107,107,0,0,68,101,0,0,0,0,107,107,0,113,68,82,103,110,84,82,112,69,110,2,4,107,69,97,84,103,68,110,95,103,12,5,21,88,24,113,12,66,113,2,95,95,1,95,88,97,112,110,95,0,0,0,0,0,0,0,0,0,0,0,0,0,0,0,0,0,0,0,0,0,0,0,0,0,0,0,0,0,0,0,0,0,0,0,0,0,0,0,0,0,0,0,0,0,0,0,0,0,0,0,0,0,0,0,0,0,0,0,0,0,0,0,0,0,0,0,0,0,0,0,0,0,0,0,0,0,0,0,0,0,0,0,0,0,0,0,0],"split_type":[0,0,0,0,0,0,0,0,0,0,0,0,0,0,0,0,0,0,0,0,0,0,0,0,0,0,0,0,0,0,0,0,0,0,0,0,0,0,0,0,0,0,0,0,0,0,0,0,0,0,0,0,0,0,0,0,0,0,0,0,0,0,0,0,0,0,0,0,0,0,0,0,0,0,0,0,0,0,0,0,0,0,0,0,0,0,0,0,0,0,0,0,0,0,0,0,0,0,0,0,0,0,0,0,0,0,0,0,0,0,0,0,0,0,0,0,0,0,0,0,0,0,0,0,0,0,0,0,0,0,0,0,0,0,0,0,0,0,0,0,0,0,0,0,0,0,0,0,0,0,0,0,0,0,0,0,0,0,0,0,0,0,0,0,0,0,0,0,0,0,0,0,0,0,0,0,0,0,0,0,0,0,0,0,0,0,0,0,0,0,0,0,0,0,0],"sum_hessian":[8.83E3,2.104E3,6.726E3,5.71E2,1.533E3,3.767E3,2.959E3,1.72E2,3.99E2,1.023E3,5.1E2,2.731E3,1.036E3,7.3E2,2.229E3,2.62E2,1.37E2,5.84E2,4.39E2,3.47E2,1.63E2,1.538E3,1.193E3,3.3E2,7.06E2,3.39E2,3.91E2,1.787E3,4.42E2,9.8E1,1.64E2,1.27E2,1E1,4.37E2,1.47E2,2.71E2,1.68E2,2.72E2,7.5E1,1E0,1.62E2,2.9E1,1.509E3,4.4E2,7.53E2,9.6E1,2.34E2,4.33E2,2.73E2,3.5E1,3.04E2,9.4E1,2.97E2,1.146E3,6.41E2,4.31E2,1.1E1,1E0,9.7E1,1.6E2,4E0,1.24E2,3E0,1E0,4.36E2,1.29E2,1.8E1,1.08E2,1.63E2,4.7E1,1.21E2,1.01E2,1.71E2,5.8E1,1.7E1,1.24E2,3.8E1,2.6E1,3E0,9.8E1,1.411E3,1.05E2,3.35E2,3.51E2,4.02E2,4.4E1,5.2E1,1.03E2,1.31E2,9E0,4.24E2,1.73E2,1E2,2.5E1,1E1,2.97E2,7E0,2E0,9.2E1,1.91E2,1.06E2,4.17E2,7.29E2,3.95E2,2.46E2,1.59E2,2.72E2,9.6E1,1E0,3E0,1.57E2,3.26E2,1.1E2,5E1,7.9E1,1.07E2,1E0,2.2E1,1.41E2,4.2E1,5E0,1.07E2,1.4E1,5.9E1,4.2E1,6E0,1.65E2,4E0,5.4E1,1.2E1,5E0,1.02E2,2.2E1,3.2E1,6E0,2.5E1,1E0,2E0,1E0,3.4E1,6.4E1,9.98E2,4.13E2,1.1E1,9.4E1,2.54E2,8.1E1,1.73E2,1.78E2,2.17E2,1.85E2,3.5E1,9E0,3.7E1,1.5E1,8.8E1,1.5E1,2.3E1,1.08E2,3E0,6E0,1.7E1,4.07E2,1.45E2,2.8E1,4.2E1,5.8E1,6E0,1.9E1,8E0,2E0,2.39E2,5.8E1,2E0,5E0,1E0,1E0,6E0,8.6E1,1.6E1,1.75E2,1.05E2,1E0,5.3E1,3.64E2,6.56E2,7.3E1,2.2E1,3.73E2,2E0,2.44E2,5.2E1,1.07E2,1.54E2,1.18E2],"tree_param":{"num_deleted":"0","num_feature":"117","num_nodes":"195","size_leaf_vector":"1"}},{"base_weights":[-1.5411618E-2,-6.3755927E0,1.8939503E0,-1.0357099E1,-4.861275E0,2.9893717E-1,4.1243105E0,-1.3155399E1,-8.779462E0,-5.8903565E0,-2.702404E0,-8.000475E-1,3.0722506E0,3.3973527E0,4.5666547E0,-1.9699172E0,-1.5982361E0,-9.250206E0,-6.773257E0,-6.865923E0,-4.99214E0,-3.0764246E0,-1.6220242E0,-1.822062E0,5.752565E-1,2.097066E0,4.2419195E0,2.70791E0,3.7757876E0,5.01159E0,4.2269564E0,-1.0234608E1,-8.47955E0,-7.077401E0,-4.006767E-1,-7.2415175E0,-5.0952744E0,-6.239619E0,-4.511373E0,-3.3240755E0,-1.4807119E0,-1.4429417E-1,-1.8865939E0,-1.1006902E1,-1.6392901E0,-6.524615E-1,1.3593777E0,8.9058113E-1,2.4905374E0,4.6572328E0,3.1493468E0,2.4984536E0,3.5193598E0,4.1652956E0,3.390518E0,4.887898E0,8.465422E-1,3.920786E0,4.811851E0,-1.4366525E0,-3.5949746E-1,-4.0357155E-1,-8.59612E0,-1.0022416E0,-3.7077653E-1,-9.103205E0,-6.9456706E0,-8.812963E-1,-4.3215933E0,-6.3183584E0,-4.5518094E-1,-4.723659E0,-2.2839534E0,-4.211087E0,-2.9544778E0,-2.1721392E0,7.979747E-2,9.451553E-1,-8.140505E-1,-2.3059735E0,-1.1952795E0,-5.6786537E0,-1.2282812E1,-1.5268552E0,-9.827671E0,-2.2699792E0,-4.2959642E-1,1.784436E0,4.6854076E-1,3.002233E-1,1.4664179E0,1.304317E0,2.8709288E0,4.8583207E0,3.532324E0,1.8728536E0,3.364685E0,2.3597908E0,3.324668E0,4.338298E0,3.68916E-1,4.358305E0,3.3071697E0,3.4756415E0,2.1842363E0,4.965792E0,5.259339E-1,3.4670293E0,4.1152077E0,4.8875628E0,-1.1157868E0,-3.5777554E-1,-1.2152668E0,-1.2988763E0,-5.667229E-3,-1.0534093E0,-9.0901893E-1,-2.688989E-1,-6.2396616E-1,-4.0232158E-1,-9.017141E-1,-1.7866583E-1,7.854925E-2,-7.429419E-1,-5.991504E-1,-3.7392616E-1,5.2968585E-3,-7.8261234E-2,-5.9366333E-1,-3.8779226E-1,-6.161501E-1,-1.7744696E-1,-4.1658205E-1,8.7824255E-2,-5.6957144E-2,2.0117386E-1,-4.621827E-2,-1.5652692E-2,-1.7033039E-1,-2.1911868E-1,-4.0564302E-1,3.124702E-2,-1.951881E-1,-2.7407068E-1,-1.2195305E0,-1.8136566E0,-4.1402686E-1,-6.6416544E-1,-1.763429E-1,8.4861256E-2,-1.7214261E0,-6.1587477E-1,-2.5308245E-1,-1.3609036E-2,-1.3735992E-1,1.6086322E-1,3.1089646E-1,3.873685E-2,2.2869816E-1,1.0558694E-1,-2.4166556E-2,5.660051E-2,2.5657183E-1,-4.9230605E-1,2.1234399E-1,5.119053E-1,3.250232E-1,1.9198775E-1,6.8346435E-1,4.4212684E-1,6.71362E-1,8.458991E-2,2.93247E-1,3.243606E-1,4.8931414E-1,3.3521834E-1,1.1567701E-1,4.914027E-1,2.2084011E-1,6.356117E-1,3.4083578E-1,6.447069E-1,5.0854844E-1,1.1401797E-1,4.7676423E-1,1.6673438E-1,4.9243468E-1,3.3591807E-1,-3.5345335E-2,3.3108747E-1,6.9849145E-1,4.2441645E-1,5.213389E-1,6.0536796E-1,5.1231146E-1,6.696699E-1,8.681956E-1,-1.107242E0,3.737154E-1],"categories":[],"categories_nodes":[],"categories_segments":[],"categories_sizes":[],"default_left":[0,0,1,0,1,0,0,0,1,0,0,1,0,1,0,0,0,0,0,0,0,0,0,0,0,0,0,0,0,0,0,0,0,0,0,0,0,0,0,0,0,0,0,0,0,0,0,1,0,0,0,0,0,0,0,0,0,0,0,0,0,0,0,0,0,0,0,0,0,0,0,0,0,0,0,0,0,0,0,0,0,0,0,0,0,0,0,0,1,0,0,0,0,0,0,0,0,0,0,0,0,0,0,0,0,0,0,0,0,0,0,0,0,0,0,0,0,0,0,0,0,0,0,0,0,0,0,0,0,0,0,0,0,0,0,0,0,0,0,0,0,0,0,0,0,0,0,0,0,0,0,0,0,0,0,0,0,0,0,0,0,0,0,0,0,0,0,0,0,0,0,0,0,0,0,0,0,0,0,0,0,0,0,0,0,0,0,0,0,0,0,0,0,0,0,0,0,0,0],"id":2,"left_children":[1,3,5,7,9,11,13,15,17,19,21,23,25,27,29,-1,-1,31,33,35,37,39,41,43,45,47,49,51,53,55,57,59,61,63,-1,65,67,69,71,73,75,77,79,81,83,85,87,89,91,93,95,97,99,101,103,105,-1,107,109,-1,-1,-1,111,-1,-1,113,115,-1,117,119,121,123,125,127,129,131,133,135,137,139,141,143,145,147,149,151,153,155,157,159,161,163,165,167,169,171,173,175,177,179,-1,181,183,185,187,189,-1,191,193,195,197,-1,-1,-1,-1,-1,-1,-1,-1,-1,-1,-1,-1,-1,-1,-1,-1,-1,-1,-1,-1,-1,-1,-1,-1,-1,-1,-1,-1,-1,-1,-1,-1,-1,-1,-1,-1,-1,-1,-1,-1,-1,-1,-1,-1,-1,-1,-1,-1,-1,-1,-1,-1,-1,-1,-1,-1,-1,-1,-1,-1,-1,-1,-1,-1,-1,-1,-1,-1,-1,-1,-1,-1,-1,-1,-1,-1,-1,-1,-1,-1,-1,-1,-1,-1,-1,-1,-1,-1],"loss_changes":[1.0577675E5,1.2067258E4,2.3830014E4,2.3093047E3,3.2228438E3,1.1911263E4,8.7985547E2,1.3273828E2,2.6493555E2,8.2510547E2,1.8508032E2,3.9357095E3,1.2544443E3,2.6466602E2,2.3710938E2,0E0,0E0,1.1721484E2,6.1841797E1,2.6976562E2,2.7788965E2,1.3232642E2,4.801938E1,2.6746226E3,1.150636E3,2.853723E2,2.1095996E2,5.4078857E1,8.566406E1,6.1421875E1,1.5513477E2,4.919922E0,7.981641E1,3.8432617E0,0E0,1.391289E2,4.861914E1,6.035498E1,1.659165E2,8.428613E1,5.3414093E1,1.5543007E1,2.7017334E1,1.3108203E2,1.433002E3,1.6666309E2,2.7492102E2,5.0702576E1,2.0162402E2,6.170117E1,3.142981E1,2.5645386E1,4.059613E1,3.8299805E1,2.6712646E1,3.694922E1,0E0,4.101758E1,1.5693652E2,0E0,0E0,0E0,6.6796875E1,0E0,0E0,8.113208E1,3.1463867E1,0E0,8.588867E0,4.033789E1,3.4989429E0,6.2365234E1,3.2192154E1,7.622925E0,4.2637817E1,2.0180054E1,4.6182294E0,5.7649126E0,3.4372635E0,2.261264E1,1.24557495E1,7.160489E1,1.09566895E2,1.3255989E3,5.569309E2,4.5501495E1,7.5285706E1,1.3399084E2,5.2294754E1,1.6585579E1,2.8710297E1,1.2274725E2,1.3879639E2,2.279541E1,9.867249E0,4.872635E0,7.13855E0,1.2696777E1,6.8237915E0,1.4082031E0,0E0,2.9203613E1,1.3287598E1,2.8712402E1,1.4779892E1,3.3317383E1,0E0,9.575439E0,2.5059082E1,8.482422E0,1.5658514E2,0E0,0E0,0E0,0E0,0E0,0E0,0E0,0E0,0E0,0E0,0E0,0E0,0E0,0E0,0E0,0E0,0E0,0E0,0E0,0E0,0E0,0E0,0E0,0E0,0E0,0E0,0E0,0E0,0E0,0E0,0E0,0E0,0E0,0E0,0E0,0E0,0E0,0E0,0E0,0E0,0E0,0E0,0E0,0E0,0E0,0E0,0E0,0E0,0E0,0E0,0E0,0E0,0E0,0E0,0E0,0E0,0E0,0E0,0E0,0E0,0E0,0E0,0E0,0E0,0E0,0E0,0E0,0E0,0E0,0E0,0E0,0E0,0E0,0E0,0E0,0E0,0E0,0E0,0E0,0E0,0E0,0E0,0E0,0E0,0E0,0E0,0E0,0E0],"parents":[2147483647,0,0,1,1,2,2,3,3,4,4,5,5,6,6,7,7,8,8,9,9,10,10,11,11,12,12,13,13,14,14,17,17,18,18,19,19,20,20,21,21,22,22,23,23,24,24,25,25,26,26,27,27,28,28,29,29,30,30,31,31,32,32,33,33,35,35,36,36,37,37,38,38,39,39,40,40,41,41,42,42,43,43,44,44,45,45,46,46,47,47,48,48,49,49,50,50,51,51,52,52,53,53,54,54,55,55,57,57,58,58,62,62,65,65,66,66,68,68,69,69,70,70,71,71,72,72,73,73,74,74,75,75,76,76,77,77,78,78,79,79,80,80,81,81,82,82,83,83,84,84,85,85,86,86,87,87,88,88,89,89,90,90,91,91,92,92,93,93,94,94,95,95,96,96,97,97,98,98,99,99,101,101,102,102,103,103,104,104,105,105,107,107,108,108,109,109,110,110],"right_children":[2,4,6,8,10,12,14,16,18,20,22,24,26,28,30,-1,-1,32,34,36,38,40,42,44,46,48,50,52,54,56,58,60,62,64,-1,66,68,70,72,74,76,78,80,82,84,86,88,90,92,94,96,98,100,102,104,106,-1,108,110,-1,-1,-1,112,-1,-1,114,116,-1,118,120,122,124,126,128,130,132,134,136,138,140,142,144,146,148,150,152,154,156,158,160,162,164,166,168,170,172,174,176,178,180,-1,182,184,186,188,190,-1,192,194,196,198,-1,-1,-1,-1,-1,-1,-1,-1,-1,-1,-1,-1,-1,-1,-1,-1,-1,-1,-1,-1,-1,-1,-1,-1,-1,-1,-1,-1,-1,-1,-1,-1,-1,-1,-1,-1,-1,-1,-1,-1,-1,-1,-1,-1,-1,-1,-1,-1,-1,-1,-1,-1,-1,-1,-1,-1,-1,-1,-1,-1,-1,-1,-1,-1,-1,-1,-1,-1,-1,-1,-1,-1,-1,-1,-1,-1,-1,-1,-1,-1,-1,-1,-1,-1,-1,-1,-1,-1],"split_conditions":[2.02E1,1.19E1,2.55E1,8.366667E0,1.7E1,-6.414848E-1,2.72E1,6.3E0,1.2733334E1,1.46E1,2.0966667E1,2.34E1,-4.0042138E-1,2.7E1,1.36E1,-1.9699172E0,-1.5982361E0,9.7E0,2.0033333E1,-8.4007305E-1,1.45E1,-7.530442E-1,3.6411945E-2,2.1932241E-1,2.3133333E1,2.39E1,9.742862E-1,9.6108776E-1,1.1033334E1,2.9166666E1,2.8566668E1,6.344576E-2,9.689242E-1,-7.900626E-1,-4.006767E-1,1.1133333E1,1.036701E0,1.99E1,-7.957609E-1,1.7866667E1,1.7626562E3,7.7666664E1,8.3333336E1,-9.3618834E-1,9.9855995E-1,1.93E1,1.021109E0,2.45E1,9.13E-1,9.3349713E-1,4.8E0,2.6966667E1,1.4666667E1,9.9588925E-1,2.6066668E1,9.9523103E-1,8.465422E-1,-8.3329797E-1,5.40312E1,-1.4366525E0,-3.5949746E-1,-4.0357155E-1,7.86168E-1,-1.0022416E0,-3.7077653E-1,1.0342197E0,-9.509736E-1,-8.812963E-1,4.92E2,9.69171E-1,1.3825175E-1,5E-2,8.5E1,4.6194408E-2,1.7760402E-1,1.5037249E-1,4.5E-1,3.7195846E-2,6.4066746E-3,9.9711937E-1,-9.496301E-1,2.089122E0,1.4841722E-1,1.7866667E1,-9.9972874E-1,2.7E1,1.0265967E0,2.56E1,2.4733334E1,1.3090168E5,-5.86859E-1,-6.372107E-1,9.784011E-1,6.2E-1,9.783219E-1,2.4533333E1,7.117E-1,2.853416E-1,7.18E1,8.466667E-1,3.68916E-1,1.268929E0,7.2333336E1,2.2E0,1.6891928E-1,6.7E1,5.259339E-1,6.08E2,8.920014E-1,3.13E1,2.2974497E-2,-3.5777554E-1,-1.2152668E0,-1.2988763E0,-5.667229E-3,-1.0534093E0,-9.0901893E-1,-2.688989E-1,-6.2396616E-1,-4.0232158E-1,-9.017141E-1,-1.7866583E-1,7.854925E-2,-7.429419E-1,-5.991504E-1,-3.7392616E-1,5.2968585E-3,-7.8261234E-2,-5.9366333E-1,-3.8779226E-1,-6.161501E-1,-1.7744696E-1,-4.1658205E-1,8.7824255E-2,-5.6957144E-2,2.0117386E-1,-4.621827E-2,-1.5652692E-2,-1.7033039E-1,-2.1911868E-1,-4.0564302E-1,3.124702E-2,-1.951881E-1,-2.7407068E-1,-1.2195305E0,-1.8136566E0,-4.1402686E-1,-6.6416544E-1,-1.763429E-1,8.4861256E-2,-1.7214261E0,-6.1587477E-1,-2.5308245E-1,-1.3609036E-2,-1.3735992E-1,1.6086322E-1,3.1089646E-1,3.873685E-2,2.2869816E-1,1.0558694E-1,-2.4166556E-2,5.660051E-2,2.5657183E-1,-4.9230605E-1,2.1234399E-1,5.119053E-1,3.250232E-1,1.9198775E-1,6.8346435E-1,4.4212684E-1,6.71362E-1,8.458991E-2,2.93247E-1,3.243606E-1,4.8931414E-1,3.3521834E-1,1.1567701E-1,4.914027E-1,2.2084011E-1,6.356117E-1,3.4083578E-1,6.447069E-1,5.0854844E-1,1.1401797E-1,4.7676423E-1,1.6673438E-1,4.9243468E-1,3.3591807E-1,-3.5345335E-2,3.3108747E-1,6.9849145E-1,4.2441645E-1,5.213389E-1,6.0536796E-1,5.1231146E-1,6.696699E-1,8.681956E-1,-1.107242E0,3.737154E-1],"split_indices":[109,109,107,107,107,66,107,109,107,109,107,109,66,109,113,0,0,109,107,66,107,66,6,67,107,107,68,67,113,107,107,94,68,66,0,107,82,109,66,107,10,95,95,19,46,107,68,109,12,88,91,107,113,68,113,68,0,66,12,0,0,0,82,0,0,68,66,0,105,68,0,86,97,4,0,0,85,5,11,82,66,111,2,107,22,97,68,109,107,99,66,66,68,85,82,107,12,18,103,85,0,82,95,115,8,95,0,105,88,107,2,0,0,0,0,0,0,0,0,0,0,0,0,0,0,0,0,0,0,0,0,0,0,0,0,0,0,0,0,0,0,0,0,0,0,0,0,0,0,0,0,0,0,0,0,0,0,0,0,0,0,0,0,0,0,0,0,0,0,0,0,0,0,0,0,0,0,0,0,0,0,0,0,0,0,0,0,0,0,0,0,0,0,0,0,0,0,0,0],"split_type":[0,0,0,0,0,0,0,0,0,0,0,0,0,0,0,0,0,0,0,0,0,0,0,0,0,0,0,0,0,0,0,0,0,0,0,0,0,0,0,0,0,0,0,0,0,0,0,0,0,0,0,0,0,0,0,0,0,0,0,0,0,0,0,0,0,0,0,0,0,0,0,0,0,0,0,0,0,0,0,0,0,0,0,0,0,0,0,0,0,0,0,0,0,0,0,0,0,0,0,0,0,0,0,0,0,0,0,0,0,0,0,0,0,0,0,0,0,0,0,0,0,0,0,0,0,0,0,0,0,0,0,0,0,0,0,0,0,0,0,0,0,0,0,0,0,0,0,0,0,0,0,0,0,0,0,0,0,0,0,0,0,0,0,0,0,0,0,0,0,0,0,0,0,0,0,0,0,0,0,0,0,0,0,0,0,0,0,0,0,0,0,0,0,0,0,0,0,0,0],"sum_hessian":[8.708E3,2.01E3,6.698E3,5.52E2,1.458E3,3.906E3,2.792E3,1.96E2,3.56E2,9.86E2,4.72E2,2.798E3,1.108E3,1.06E3,1.732E3,1.22E2,7.4E1,2.85E2,7.1E1,4.69E2,5.17E2,3.49E2,1.23E2,1.605E3,1.193E3,6.06E2,5.02E2,3.79E2,6.81E2,7.43E2,9.89E2,1.19E2,1.66E2,6.5E1,6E0,3.84E2,8.5E1,1.4E2,3.77E2,3.01E2,4.8E1,1.9E1,1.04E2,3E1,1.575E3,4.65E2,7.28E2,1.5E2,4.56E2,3.61E2,1.41E2,3.05E2,7.4E1,3.33E2,3.48E2,6.7E2,7.3E1,6.55E2,3.34E2,1.18E2,1E0,4E0,1.62E2,6.3E1,2E0,4.8E1,3.36E2,3E1,5.5E1,1.38E2,2E0,3.43E2,3.4E1,8.5E1,2.16E2,3.3E1,1.5E1,7E0,1.2E1,6.3E1,4.1E1,7E0,2.3E1,1.555E3,2E1,5.5E1,4.1E2,4.92E2,2.36E2,7.5E1,7.5E1,1.12E2,3.44E2,3.03E2,5.8E1,2.2E1,1.19E2,2.65E2,4E1,3.6E1,3.8E1,2.68E2,6.5E1,3.23E2,2.5E1,6.23E2,4.7E1,2.03E2,4.52E2,3.3E2,4E0,3E0,1.59E2,4.7E1,1E0,1.37E2,1.99E2,4E0,5.1E1,6E0,1.32E2,1E0,1E0,1.41E2,2.02E2,2.9E1,5E0,1E0,8.4E1,1.95E2,2.1E1,1.7E1,1.6E1,7E0,8E0,5E0,2E0,5E0,7E0,3E1,3.3E1,5E0,3.6E1,4E0,3E0,2.1E1,2E0,1.17E2,1.438E3,4E0,1.6E1,8E0,4.7E1,2.57E2,1.53E2,2.03E2,2.89E2,2.04E2,3.2E1,3.8E1,3.7E1,2E1,5.5E1,4E0,1.08E2,1.38E2,2.06E2,3E0,3E2,4.8E1,1E1,4E0,1.8E1,1.6E1,1.03E2,2.58E2,7E0,3.5E1,5E0,3.1E1,5E0,1.94E2,7.4E1,3E0,6.2E1,7E0,3.16E2,2.3E1,2E0,8E0,6.15E2,8.2E1,1.21E2,3E2,1.52E2,3.12E2,1.8E1,1E0,3E0],"tree_param":{"num_deleted":"0","num_feature":"117","num_nodes":"199","size_leaf_vector":"1"}},{"base_weights":[2.7655165E-3,-5.4962773E0,1.5863572E0,-8.631645E0,-4.18663E0,5.843565E-2,3.3652098E0,-1.0698076E1,-7.086225E0,-5.019376E0,-2.4101365E0,-8.49367E-1,2.6937888E0,2.3869722E0,3.8067093E0,-1.6661426E0,-9.412036E0,-8.13612E0,-6.1712966E0,-5.7779126E0,-4.349409E0,-2.8403106E0,-1.5571549E0,-1.8870919E0,1.24215156E-1,1.7256824E0,3.748553E0,1.8195525E0,2.6819382E0,3.1441624E0,3.9731052E0,-1.3267245E0,-5.295028E-3,-1.6014977E0,-7.7266955E0,-6.3821836E0,-3.7256787E0,-6.058486E0,-3.8049006E0,-4.6027603E0,-2.7204475E0,-3.1493568E0,-1.9808915E0,-5.1676744E-1,-1.9417679E0,-3.1854093E0,-7.6655763E-1,-8.546502E-1,8.0252904E-1,9.705814E-1,2.2386513E0,4.0839777E0,2.8751054E0,7.341414E-1,2.0015485E0,2.8628683E0,1.8502399E0,3.428108E0,2.7451181E0,4.226628E0,3.6521134E0,-6.3225203E0,-8.333993E0,-1.9464089E0,-6.450091E0,-3.8588574E0,-9.7053826E-2,-1.0591253E0,-5.8637366E0,-4.5208435E0,-2.990584E0,-5.0805893E0,-3.942443E0,-2.1663153E0,-5.9939903E-1,-3.8395338E0,-2.7856493E0,-2.6286664E0,-1.0179145E0,1.7294016E-1,-7.3996335E-1,-1.003286E0,-1.71658E0,-5.0182943E0,-7.1581376E-1,7.75668E-1,-1.4615911E0,-1.7134894E0,-4.6379063E-1,1.2061535E0,1.2186608E-1,4.850143E-1,1.3651003E0,2.531995E0,-1.9366726E-1,3.75292E0,4.6535077E0,5.4828835E-1,3.046294E0,1.1848053E0,-0E0,2.0463698E0,-4.1403666E-1,2.6528528E0,3.3856497E0,2.6119673E-1,2.0112193E0,2.511109E0,3.5259163E0,2.8936725E0,1.8237488E0,4.181368E0,8.49336E-1,3.2461288E0,3.9728744E0,-4.10664E-3,-9.0321225E-1,-3.4064394E-1,-1.1792833E0,-3.36851E-1,-2.6229493E-2,-9.0878904E-1,-2.2276738E-1,-1.2022751E-1,-5.5743676E-1,-6.2773174E-1,-8.42467E-1,-6.6186845E-1,-1.5171924E-1,-2.764056E-1,-4.7243804E-1,-4.8008528E-1,-7.305884E-1,-6.76548E-1,-4.558008E-1,-3.5911623E-1,-4.81602E-2,-5.5651975E-1,-2.735236E-1,-1.5620385E-1,-3.983593E-1,-2.9583254E-1,-4.544231E-1,-0E0,-2.0098658E-1,-2.3658153E-1,-4.616159E-2,-2.724118E-1,-3.948341E-2,-1.1532638E0,-2.2425567E-1,-8.1330836E-1,-2.647871E-3,3.7983862E-1,-6.32947E-2,-4.74133E-1,-1.5135616E-1,-5.021337E-1,-2.101193E-1,-4.012891E-2,-2.1269721E-1,7.4695006E-2,2.320852E-1,2.371512E-2,-4.7740868E-1,4.9068667E-3,1.5476583E-1,5.916383E-2,2.1954475E-1,1.0865702E-1,4.0248504E-1,-2.2001079E-1,5.812582E-2,6.0273623E-1,4.7994938E-1,1.9705237E-1,6.568265E-1,-9.211511E-2,1.08084165E-1,3.855198E-1,5.578692E-1,2.0059107E-1,5.5208616E-2,-1.21370696E-1,6.0447358E-2,2.3823483E-1,3.1514138E-1,-1.6187745E-1,3.334368E-2,3.1170747E-1,4.1389254E-1,4.8307106E-1,2.4232166E-1,9.539557E-2,-1.00234754E-1,3.5459086E-2,2.9543224E-1,6.607619E-2,3.5838962E-1,7.7945753E-3,4.9513698E-1,3.2852423E-1,4.269714E-1,-6.923953E-3,2.8593865E-1,5.423501E-1,6.162498E-1,3.8587987E-1,4.820479E-1,5.645738E-1,1.7289395E-2],"categories":[],"categories_nodes":[],"categories_segments":[],"categories_sizes":[],"default_left":[0,0,1,0,1,0,0,0,0,0,0,1,0,1,0,0,0,0,1,0,0,0,0,0,0,0,0,0,0,0,0,0,0,0,0,0,0,0,0,0,0,0,0,0,0,0,0,0,0,1,0,0,0,0,0,0,0,0,0,0,0,0,0,0,0,0,0,0,0,0,0,0,0,0,0,0,0,0,0,0,0,0,0,1,0,0,0,0,0,0,0,0,0,0,0,0,0,0,0,0,0,0,0,0,0,0,0,0,0,0,0,0,0,0,0,0,0,0,0,0,0,0,0,0,0,0,0,0,0,0,0,0,0,0,0,0,0,0,0,0,0,0,0,0,0,0,0,0,0,0,0,0,0,0,0,0,0,0,0,0,0,0,0,0,0,0,0,0,0,0,0,0,0,0,0,0,0,0,0,0,0,0,0,0,0,0,0,0,0,0,0,0,0,0,0,0,0,0,0,0,0,0,0,0,0,0,0,0,0,0,0],"id":3,"left_children":[1,3,5,7,9,11,13,15,17,19,21,23,25,27,29,-1,31,33,35,37,39,41,43,45,47,49,51,53,55,57,59,-1,-1,-1,61,63,65,67,69,71,73,75,77,79,81,83,85,87,89,91,93,95,97,99,101,103,105,107,109,111,113,115,117,119,121,123,-1,-1,125,127,129,131,133,135,-1,137,139,141,143,-1,145,-1,147,149,151,153,155,157,159,161,163,165,167,169,171,173,175,177,179,181,183,185,187,189,191,193,195,197,199,201,203,205,-1,207,209,-1,-1,-1,-1,-1,-1,-1,-1,-1,-1,-1,-1,-1,-1,-1,-1,-1,-1,-1,-1,-1,-1,-1,-1,-1,-1,-1,-1,-1,-1,-1,-1,-1,-1,-1,-1,-1,-1,-1,-1,-1,-1,-1,-1,-1,-1,-1,-1,-1,-1,-1,-1,-1,-1,-1,-1,-1,-1,-1,-1,-1,-1,-1,-1,-1,-1,-1,-1,-1,-1,-1,-1,-1,-1,-1,-1,-1,-1,-1,-1,-1,-1,-1,-1,-1,-1,-1,-1,-1,-1,-1,-1,-1,-1,-1,-1],"loss_changes":[7.564163E4,7.932742E3,1.8329623E4,1.7365312E3,2.0154785E3,8.685025E3,1.334957E3,2.5014648E2,2.5899805E2,4.4482617E2,1.5606348E2,2.7284097E3,9.419258E2,1.5674463E2,2.2167383E2,0E0,8.5887695E1,1.0202637E2,6.556055E1,2.1330957E2,1.915332E2,6.976758E1,5.8694885E1,1.8984707E3,9.264401E2,1.8591211E2,1.1616699E2,6.446631E1,8.942285E1,3.8174316E1,1.2095117E2,0E0,0E0,0E0,5.5981934E1,3.4726562E1,3.4367676E0,6.0115234E1,1.7291077E1,1.1251367E2,4.972516E1,4.051123E1,4.6598267E1,1.7471634E1,1.13802E2,2.734478E3,7.5503156E2,1.9060483E2,2.2611603E2,3.7213715E1,2.0708252E2,3.9424316E1,4.8393433E1,1.6680061E1,3.220703E1,4.647168E1,2.9141632E1,1.18342285E1,1.9183105E1,4.9566406E1,8.40957E1,3.876172E1,2.9651367E1,2.58879E0,2.5936523E1,1.8116608E0,0E0,0E0,4.363965E1,1.4137268E1,3.775116E0,3.72583E1,9.523755E1,3.8333435E1,0E0,9.140503E0,1.107666E1,6.718994E0,1.4482838E1,0E0,1.4042458E1,0E0,3.439044E1,3.8113057E3,9.203092E2,5.239437E2,3.5028955E2,6.3923523E1,7.30064E1,1.563841E2,5.232574E1,2.5334093E1,2.0114609E1,1.5395972E2,2.7864273E1,1.9548584E1,7.7648926E0,3.3326745E0,1.9147583E1,5.31715E0,8.010544E0,1.5309082E1,3.3771696E0,4.109082E1,9.242065E0,5.542461E0,1.8085602E1,1.2991943E0,1.0945557E1,5.1916504E0,1.2375458E1,4.335547E1,0E0,2.2215088E1,1.0355127E2,0E0,0E0,0E0,0E0,0E0,0E0,0E0,0E0,0E0,0E0,0E0,0E0,0E0,0E0,0E0,0E0,0E0,0E0,0E0,0E0,0E0,0E0,0E0,0E0,0E0,0E0,0E0,0E0,0E0,0E0,0E0,0E0,0E0,0E0,0E0,0E0,0E0,0E0,0E0,0E0,0E0,0E0,0E0,0E0,0E0,0E0,0E0,0E0,0E0,0E0,0E0,0E0,0E0,0E0,0E0,0E0,0E0,0E0,0E0,0E0,0E0,0E0,0E0,0E0,0E0,0E0,0E0,0E0,0E0,0E0,0E0,0E0,0E0,0E0,0E0,0E0,0E0,0E0,0E0,0E0,0E0,0E0,0E0,0E0,0E0,0E0,0E0,0E0,0E0,0E0,0E0,0E0,0E0,0E0,0E0,0E0],"parents":[2147483647,0,0,1,1,2,2,3,3,4,4,5,5,6,6,7,7,8,8,9,9,10,10,11,11,12,12,13,13,14,14,16,16,17,17,18,18,19,19,20,20,21,21,22,22,23,23,24,24,25,25,26,26,27,27,28,28,29,29,30,30,34,34,35,35,36,36,37,37,38,38,39,39,40,40,41,41,42,42,43,43,44,44,45,45,46,46,47,47,48,48,49,49,50,50,51,51,52,52,53,53,54,54,55,55,56,56,57,57,58,58,59,59,60,60,61,61,62,62,63,63,64,64,65,65,68,68,69,69,70,70,71,71,72,72,73,73,75,75,76,76,77,77,78,78,80,80,82,82,83,83,84,84,85,85,86,86,87,87,88,88,89,89,90,90,91,91,92,92,93,93,94,94,95,95,96,96,97,97,98,98,99,99,100,100,101,101,102,102,103,103,104,104,105,105,106,106,107,107,108,108,109,109,110,110,111,111,113,113,114,114],"right_children":[2,4,6,8,10,12,14,16,18,20,22,24,26,28,30,-1,32,34,36,38,40,42,44,46,48,50,52,54,56,58,60,-1,-1,-1,62,64,66,68,70,72,74,76,78,80,82,84,86,88,90,92,94,96,98,100,102,104,106,108,110,112,114,116,118,120,122,124,-1,-1,126,128,130,132,134,136,-1,138,140,142,144,-1,146,-1,148,150,152,154,156,158,160,162,164,166,168,170,172,174,176,178,180,182,184,186,188,190,192,194,196,198,200,202,204,206,-1,208,210,-1,-1,-1,-1,-1,-1,-1,-1,-1,-1,-1,-1,-1,-1,-1,-1,-1,-1,-1,-1,-1,-1,-1,-1,-1,-1,-1,-1,-1,-1,-1,-1,-1,-1,-1,-1,-1,-1,-1,-1,-1,-1,-1,-1,-1,-1,-1,-1,-1,-1,-1,-1,-1,-1,-1,-1,-1,-1,-1,-1,-1,-1,-1,-1,-1,-1,-1,-1,-1,-1,-1,-1,-1,-1,-1,-1,-1,-1,-1,-1,-1,-1,-1,-1,-1,-1,-1,-1,-1,-1,-1,-1,-1,-1,-1,-1],"split_conditions":[2E1,1.21E1,2.4666666E1,9.8E0,1.7E1,-6.414848E-1,2.6666666E1,6.0333333E0,4.44E2,1.46E1,2.0133333E1,2.19E1,9.159177E-1,2.61E1,-8.3329797E-1,-1.6661426E0,1.0342828E0,4.9E0,1.6066668E1,-8.111449E-1,-8.3329797E-1,-8.3172977E-1,4.2850435E-2,4.6179226E-1,2.2433332E1,2.4466667E1,9.731493E-1,6.1E1,1.005471E0,1.98E1,1.46E1,-1.3267245E0,-5.295028E-3,-1.6014977E0,-6.8687695E-1,1.7299406E-2,1.5214868E-1,1.1133333E1,1.34E1,1.5866667E1,9.0713125E-1,1.7866667E1,1.0050162E0,6.1E1,6.2333332E1,1.91357E3,4.830552E-1,2.03E1,1.0215617E0,2.47E1,5.399975E-2,9.881265E-1,8.8E1,-2.079877E-1,2.8220665E-1,9.3375623E-1,-9.496301E-1,6.5E1,3.30906E1,3.0433332E1,2.8133333E1,1.39E2,6.3E0,1.355851E-1,1.6409655E0,8.203579E-2,-9.7053826E-2,-1.0591253E0,1.1860743E-1,9.4E1,1.2773271E-1,1.1595684E-1,1.1E1,9.754563E-1,-5.9939903E-1,1.0320065E0,9.066667E0,-1.1604647E-1,1.08E1,1.7294016E-1,1.7277731E-1,-1.003286E0,-7.530442E-1,1.1866667E1,1.9766666E1,1.0041794E0,1.93E1,4E1,6.533333E-1,2.49E1,2.5450444E-1,2.31E1,-5.721091E-1,6.257E-1,9.7174877E-1,3.8390227E-2,1.1365E0,1.4216338E-1,9.804597E-1,5.46058E-1,9.9292237E-1,9.082974E-1,8.323774E-2,2.6E1,2.7366667E1,1.1631851E-1,6.6333336E1,6.7E1,-9.52439E-1,1.0897374E5,2.6966667E1,9.9162006E-1,8.49336E-1,1.8728921E-1,4.93866E1,-4.10664E-3,-9.0321225E-1,-3.4064394E-1,-1.1792833E0,-3.36851E-1,-2.6229493E-2,-9.0878904E-1,-2.2276738E-1,-1.2022751E-1,-5.5743676E-1,-6.2773174E-1,-8.42467E-1,-6.6186845E-1,-1.5171924E-1,-2.764056E-1,-4.7243804E-1,-4.8008528E-1,-7.305884E-1,-6.76548E-1,-4.558008E-1,-3.5911623E-1,-4.81602E-2,-5.5651975E-1,-2.735236E-1,-1.5620385E-1,-3.983593E-1,-2.9583254E-1,-4.544231E-1,-0E0,-2.0098658E-1,-2.3658153E-1,-4.616159E-2,-2.724118E-1,-3.948341E-2,-1.1532638E0,-2.2425567E-1,-8.1330836E-1,-2.647871E-3,3.7983862E-1,-6.32947E-2,-4.74133E-1,-1.5135616E-1,-5.021337E-1,-2.101193E-1,-4.012891E-2,-2.1269721E-1,7.4695006E-2,2.320852E-1,2.371512E-2,-4.7740868E-1,4.9068667E-3,1.5476583E-1,5.916383E-2,2.1954475E-1,1.0865702E-1,4.0248504E-1,-2.2001079E-1,5.812582E-2,6.0273623E-1,4.7994938E-1,1.9705237E-1,6.568265E-1,-9.211511E-2,1.08084165E-1,3.855198E-1,5.578692E-1,2.0059107E-1,5.5208616E-2,-1.21370696E-1,6.0447358E-2,2.3823483E-1,3.1514138E-1,-1.6187745E-1,3.334368E-2,3.1170747E-1,4.1389254E-1,4.8307106E-1,2.4232166E-1,9.539557E-2,-1.00234754E-1,3.5459086E-2,2.9543224E-1,6.607619E-2,3.5838962E-1,7.7945753E-3,4.9513698E-1,3.2852423E-1,4.269714E-1,-6.923953E-3,2.8593865E-1,5.423501E-1,6.162498E-1,3.8587987E-1,4.820479E-1,5.645738E-1,1.7289395E-2],"split_indices":[109,109,107,107,107,66,107,107,105,109,107,109,67,109,66,0,68,109,107,66,66,66,6,67,107,107,68,97,68,115,113,0,0,0,17,8,0,107,107,107,112,107,82,95,95,69,88,107,68,109,11,67,95,18,14,67,66,97,12,107,107,105,109,0,82,3,0,0,0,97,0,0,115,23,0,68,113,90,113,0,92,0,66,107,107,68,107,97,84,109,22,107,66,12,68,2,12,0,68,92,68,82,1,107,113,0,95,95,66,99,107,40,0,92,13,0,0,0,0,0,0,0,0,0,0,0,0,0,0,0,0,0,0,0,0,0,0,0,0,0,0,0,0,0,0,0,0,0,0,0,0,0,0,0,0,0,0,0,0,0,0,0,0,0,0,0,0,0,0,0,0,0,0,0,0,0,0,0,0,0,0,0,0,0,0,0,0,0,0,0,0,0,0,0,0,0,0,0,0,0,0,0,0,0,0,0,0,0,0,0,0],"split_type":[0,0,0,0,0,0,0,0,0,0,0,0,0,0,0,0,0,0,0,0,0,0,0,0,0,0,0,0,0,0,0,0,0,0,0,0,0,0,0,0,0,0,0,0,0,0,0,0,0,0,0,0,0,0,0,0,0,0,0,0,0,0,0,0,0,0,0,0,0,0,0,0,0,0,0,0,0,0,0,0,0,0,0,0,0,0,0,0,0,0,0,0,0,0,0,0,0,0,0,0,0,0,0,0,0,0,0,0,0,0,0,0,0,0,0,0,0,0,0,0,0,0,0,0,0,0,0,0,0,0,0,0,0,0,0,0,0,0,0,0,0,0,0,0,0,0,0,0,0,0,0,0,0,0,0,0,0,0,0,0,0,0,0,0,0,0,0,0,0,0,0,0,0,0,0,0,0,0,0,0,0,0,0,0,0,0,0,0,0,0,0,0,0,0,0,0,0,0,0,0,0,0,0,0,0,0,0,0,0,0,0],"sum_hessian":[8.684E3,1.941E3,6.743E3,5.7E2,1.371E3,3.628E3,3.115E3,2.41E2,3.29E2,9.32E2,4.39E2,2.699E3,9.29E2,9.71E2,2.144E3,1.19E2,1.22E2,1.49E2,1.8E2,4.33E2,4.99E2,2.9E2,1.49E2,1.306E3,1.393E3,4.86E2,4.43E2,3.35E2,6.36E2,4.35E2,1.709E3,1.21E2,1E0,1.3E1,1.36E2,1.64E2,1.6E1,3.77E2,5.6E1,4.3E2,6.9E1,2.11E2,7.9E1,4.1E1,1.08E2,6.04E2,7.02E2,5.7E2,8.23E2,1.98E2,2.88E2,3.17E2,1.26E2,4.9E1,2.86E2,5.2E2,1.16E2,2.49E2,1.86E2,9.47E2,7.62E2,4.5E1,9.1E1,3E0,1.61E2,1.5E1,1E0,3.8E1,3.39E2,2.7E1,2.9E1,2.45E2,1.85E2,5.3E1,1.6E1,6.9E1,1.42E2,4.6E1,3.3E1,4E0,3.7E1,3E0,1.05E2,3.46E2,2.58E2,2.18E2,4.84E2,1.77E2,3.93E2,5.16E2,3.07E2,9E1,1.08E2,2.57E2,3.1E1,2.06E2,1.11E2,9E0,1.17E2,3E1,1.9E1,2.81E2,5E0,3.76E2,1.44E2,1.1E1,1.05E2,2.7E1,2.22E2,1.58E2,2.8E1,9.28E2,1.9E1,3.42E2,4.2E2,1E0,4.4E1,2E0,8.9E1,2E0,1E0,1.59E2,2E0,1E0,1.4E1,3.9E1,3E2,2.5E1,2E0,1E1,1.9E1,2.2E1,2.23E2,7.7E1,1.08E2,4.3E1,1E1,6.3E1,6E0,6E0,1.36E2,2.8E1,1.8E1,1E1,2.3E1,1E1,2.7E1,9E1,1.5E1,1.77E2,1.69E2,3E1,2.28E2,8.4E1,1.34E2,7.8E1,4.06E2,1.6E1,1.61E2,3.38E2,5.5E1,2.09E2,3.07E2,3.04E2,3E0,5.3E1,3.7E1,2E1,8.8E1,4.3E1,2.14E2,9E0,2.2E1,7E1,1.36E2,2E0,1.09E2,1E0,8E0,9.3E1,2.4E1,2.2E1,8E0,6E0,1.3E1,1.1E2,1.71E2,2E0,3E0,1.62E2,2.14E2,1.37E2,7E0,8E0,3E0,6E0,9.9E1,1E0,2.6E1,1E0,2.21E2,4E1,1.18E2,3E0,2.5E1,4.05E2,5.23E2,1.05E2,2.37E2,4.13E2,7E0],"tree_param":{"num_deleted":"0","num_feature":"117","num_nodes":"211","size_leaf_vector":"1"}},{"base_weights":[1.5564609E-2,-4.7600656E0,1.4333509E0,-7.5976677E0,-3.6483104E0,2.2299324E-1,3.0746615E0,-9.85596E0,-6.519171E0,-4.4056916E0,-2.0747151E0,-5.9754115E-1,2.3265002E0,2.4573078E0,3.411035E0,-1.0121029E1,-6.4625096E0,-7.4201717E0,-5.5697093E0,-4.9783635E0,-3.6112E0,-2.436144E0,-1.1879828E0,-5.461303E0,-4.2918858E-1,1.6138864E0,3.1467898E0,2.028962E0,2.7714214E0,3.6941874E0,3.1109672E0,-3.2173526E-1,-1.4196895E0,-9.388207E-1,-1.6833279E-1,-7.537624E0,-3.400615E-1,-6.6827736E0,-4.7346983E0,-5.391014E0,-4.3177757E0,-4.9446898E0,-3.2859168E0,-4.957839E0,-2.3155675E0,5.7144374E-1,-1.2875882E0,-1.5971286E0,-7.7552166E0,-1.1626108E0,3.5053757E-1,9.747126E-1,1.9995811E0,3.5344715E0,2.2726407E0,1.8319639E0,2.4239917E0,1.9456787E0,2.90854E0,3.5764809E0,4.379269E0,2.765574E0,3.4208345E0,-1.546761E-1,-7.5647855E0,-6.825016E0,-3.0885208E-1,-5.3145676E0,-3.7932072E0,-6.155907E0,-4.878167E0,-4.76449E0,-3.5539727E0,-5.4220786E0,-3.021534E0,-3.4029236E0,-1.1591955E0,-7.2933406E-2,-7.332053E-1,-2.5281675E0,-1.3506808E0,-4.380707E-2,1.3063107E-1,-1.4909506E0,-2.053078E-1,3.1361493E-1,-2.8264868E0,-5.842327E0,-1.232123E1,-1.0502139E0,-8.742991E0,-4.4861922E-1,1.0048162E0,3.45405E-1,1.178878E0,1.0763166E0,2.4167824E0,3.2676823E0,5.6298536E-1,1.0840876E0,2.4754405E0,7.022502E-2,1.8814467E0,2.842963E0,1.77603E0,-1.3955168E-1,2.1050334E0,2.9742532E0,1.4180046E0,3.6731684E0,2.7659585E0,4.4112954E0,3.1316008E-3,1.6417451E0,2.8152509E0,3.7948875E0,3.1910956E0,-8.745263E-1,-1.0993435E0,-6.9596285E-1,-1.0151676E0,-1.4558908E-1,-7.5878763E-1,-8.42687E-2,-5.4778695E-1,-4.947256E-3,-8.6720383E-1,-7.5756437E-1,-6.0076874E-1,-7.442933E-1,-5.534084E-1,-3.4861493E-1,-5.578323E-1,3.12103E-2,-7.721567E-1,-4.828284E-1,-1.606664E-1,-4.8865885E-1,-7.530318E-2,-1.4862105E-2,-3.5755205E-1,-4.2374414E-1,-2.9797032E-1,-2.7713418E-1,-8.372674E-2,-2.4802259E-1,-8.279748E-2,-1.0144673E-1,1.3843913E-1,2.1799676E-1,-9.602721E-2,-5.094944E-1,-7.221681E-2,-5.933296E-1,-1.2276118E0,-1.779941E0,-3.978615E-1,-4.391281E-1,-1.0503412E-1,-1.8811087E-1,-1.5495232E0,-1.6161843E-1,-1.2173389E-2,1.8127972E-1,5.293125E-2,9.806098E-2,-3.2524727E-2,1.3053916E-1,2.56832E-1,1.6267122E-1,-2.1753162E-1,3.6686835E-1,9.5584705E-2,1.5100153E-1,4.6289322E-1,1.6511211E-1,3.43196E-2,1.3611166E-1,3.5992712E-1,2.6622623E-1,3.2747664E-2,4.219833E-1,2.4353382E-1,2.2694023E-2,2.59917E-1,2.4942307E-2,-1.4371677E-1,1.932187E-1,3.2200232E-1,3.512542E-1,4.4465607E-1,2.1948507E-1,-1.2059607E-1,4.1190702E-1,5.231647E-1,4.119582E-1,1.3817558E-1,2.2855528E-1,6.237789E-1,2.5568762E-1,-8.4131695E-3,3.6922607E-1,4.4354227E-1,5.5791134E-1,3.738809E-1,4.4836685E-1,1.6790052E-1],"categories":[],"categories_nodes":[],"categories_segments":[],"categories_sizes":[],"default_left":[0,0,1,0,1,0,0,1,0,0,0,0,0,1,0,0,0,0,0,0,0,0,0,0,1,0,0,0,0,0,0,0,0,0,0,0,0,1,0,0,0,0,0,0,0,0,0,0,0,0,0,0,0,0,0,0,0,0,0,0,0,0,1,0,0,0,0,0,0,0,0,0,0,0,0,0,1,0,0,0,0,0,0,0,0,1,0,0,0,0,0,0,0,0,0,0,0,0,0,0,0,0,0,0,0,0,0,0,0,0,1,0,0,0,0,0,0,0,0,0,0,0,0,0,0,0,0,0,0,0,0,0,0,0,0,0,0,0,0,0,0,0,0,0,0,0,0,0,0,0,0,0,0,0,0,0,0,0,0,0,0,0,0,0,0,0,0,0,0,0,0,0,0,0,0,0,0,0,0,0,0,0,0,0,0,0,0,0,0,0,0,0,0,0,0,0,0,0,0,0,0,0,0,0,0,0,0],"id":4,"left_children":[1,3,5,7,9,11,13,15,17,19,21,23,25,27,29,31,33,35,37,39,41,43,45,47,49,51,53,55,57,59,61,-1,-1,-1,-1,63,-1,65,67,69,71,73,75,77,79,81,83,85,87,89,91,93,95,97,99,101,103,105,107,109,111,113,115,-1,117,119,-1,121,123,125,127,129,131,133,135,137,139,-1,-1,141,143,-1,-1,145,147,149,151,153,155,157,159,161,163,165,167,169,171,173,-1,175,177,-1,179,181,183,185,187,189,191,193,195,197,-1,199,201,203,205,-1,-1,-1,-1,-1,-1,-1,-1,-1,-1,-1,-1,-1,-1,-1,-1,-1,-1,-1,-1,-1,-1,-1,-1,-1,-1,-1,-1,-1,-1,-1,-1,-1,-1,-1,-1,-1,-1,-1,-1,-1,-1,-1,-1,-1,-1,-1,-1,-1,-1,-1,-1,-1,-1,-1,-1,-1,-1,-1,-1,-1,-1,-1,-1,-1,-1,-1,-1,-1,-1,-1,-1,-1,-1,-1,-1,-1,-1,-1,-1,-1,-1,-1,-1,-1,-1,-1,-1,-1,-1],"loss_changes":[5.9070133E4,6.267961E3,1.3362829E4,1.2924824E3,1.7018164E3,6.686762E3,5.8284766E2,8.562305E1,2.7979492E2,4.197793E2,1.467218E2,2.2789412E3,6.29271E2,1.2921729E2,1.4311523E2,1.26875E1,1.1386047E1,9.145996E1,1.4077539E2,1.2543555E2,1.5873096E2,8.7297485E1,2.5109207E1,8.1058374E2,1.5418008E3,1.4150488E2,1.6119531E2,2.8189087E1,5.881006E1,5.7573242E1,8.53584E1,0E0,0E0,0E0,0E0,2.2549805E1,0E0,3.2436523E1,3.8091064E1,9.8416016E1,5.550049E1,5.2388794E1,7.7986084E1,1.4226959E1,6.122119E1,3.0011268E0,2.8345627E1,8.611871E1,4.2462695E2,1.1722073E3,6.840246E2,2.7927612E1,1.3658655E2,2.9937988E1,3.472937E1,1.7982971E1,3.1879395E1,2.9148132E1,4.32959E1,5.145117E1,1.8020996E1,1.8517334E1,2.6115234E1,0E0,1.5886719E1,1.9130615E1,0E0,2.5003174E1,1.5544617E1,3.6012207E1,3.8387695E1,3.659619E1,2.789038E1,3.6340454E1,9.701065E0,8.011572E1,2.757859E1,0E0,0E0,4.4089355E1,2.6938614E1,0E0,0E0,2.6562103E1,1.4543012E1,2.0142305E1,3.922354E1,1.5919788E2,1.9824951E1,8.5346094E2,3.300653E2,1.5038916E2,1.3058667E2,1.1775432E1,2.4761505E1,2.8357193E1,8.692053E1,1.7037842E1,0E0,1.567213E0,1.6653076E1,0E0,9.683899E0,9.586853E0,7.213028E0,2.3049347E0,7.494995E0,3.5381348E1,9.593239E0,2.2600586E1,2.54859E1,9.302246E0,0E0,7.015373E0,1.57229E1,2.5108887E1,4.291748E0,0E0,0E0,0E0,0E0,0E0,0E0,0E0,0E0,0E0,0E0,0E0,0E0,0E0,0E0,0E0,0E0,0E0,0E0,0E0,0E0,0E0,0E0,0E0,0E0,0E0,0E0,0E0,0E0,0E0,0E0,0E0,0E0,0E0,0E0,0E0,0E0,0E0,0E0,0E0,0E0,0E0,0E0,0E0,0E0,0E0,0E0,0E0,0E0,0E0,0E0,0E0,0E0,0E0,0E0,0E0,0E0,0E0,0E0,0E0,0E0,0E0,0E0,0E0,0E0,0E0,0E0,0E0,0E0,0E0,0E0,0E0,0E0,0E0,0E0,0E0,0E0,0E0,0E0,0E0,0E0,0E0,0E0,0E0,0E0,0E0,0E0,0E0,0E0,0E0,0E0],"parents":[2147483647,0,0,1,1,2,2,3,3,4,4,5,5,6,6,7,7,8,8,9,9,10,10,11,11,12,12,13,13,14,14,15,15,16,16,17,17,18,18,19,19,20,20,21,21,22,22,23,23,24,24,25,25,26,26,27,27,28,28,29,29,30,30,35,35,37,37,38,38,39,39,40,40,41,41,42,42,43,43,44,44,45,45,46,46,47,47,48,48,49,49,50,50,51,51,52,52,53,53,54,54,55,55,56,56,57,57,58,58,59,59,60,60,61,61,62,62,64,64,65,65,67,67,68,68,69,69,70,70,71,71,72,72,73,73,74,74,75,75,76,76,79,79,80,80,83,83,84,84,85,85,86,86,87,87,88,88,89,89,90,90,91,91,92,92,93,93,94,94,95,95,96,96,97,97,99,99,100,100,102,102,103,103,104,104,105,105,106,106,107,107,108,108,109,109,110,110,111,111,113,113,114,114,115,115,116,116],"right_children":[2,4,6,8,10,12,14,16,18,20,22,24,26,28,30,32,34,36,38,40,42,44,46,48,50,52,54,56,58,60,62,-1,-1,-1,-1,64,-1,66,68,70,72,74,76,78,80,82,84,86,88,90,92,94,96,98,100,102,104,106,108,110,112,114,116,-1,118,120,-1,122,124,126,128,130,132,134,136,138,140,-1,-1,142,144,-1,-1,146,148,150,152,154,156,158,160,162,164,166,168,170,172,174,-1,176,178,-1,180,182,184,186,188,190,192,194,196,198,-1,200,202,204,206,-1,-1,-1,-1,-1,-1,-1,-1,-1,-1,-1,-1,-1,-1,-1,-1,-1,-1,-1,-1,-1,-1,-1,-1,-1,-1,-1,-1,-1,-1,-1,-1,-1,-1,-1,-1,-1,-1,-1,-1,-1,-1,-1,-1,-1,-1,-1,-1,-1,-1,-1,-1,-1,-1,-1,-1,-1,-1,-1,-1,-1,-1,-1,-1,-1,-1,-1,-1,-1,-1,-1,-1,-1,-1,-1,-1,-1,-1,-1,-1,-1,-1,-1,-1,-1,-1,-1,-1,-1,-1],"split_conditions":[2.02E1,1.19E1,2.55E1,6.9E0,1.7E1,7.7068967E-1,2.71E1,7.866667E0,1.16E1,1.54E1,2.06E1,2.8039002E-1,9.114266E-1,2.72E1,1.46E1,9.7074664E-1,1.7368981E-1,7.891E1,4.44E2,4.4440177E-1,1.4233334E1,6.0333332E1,1.572116E-2,-9.409323E-1,2.29E1,2.4733334E1,9.742862E-1,8.2E1,6E1,2.8933332E1,2.8133333E1,-3.2173526E-1,-1.4196895E0,-9.388207E-1,-1.6833279E-1,4.6666667E-2,-3.400615E-1,2.85E1,1.5866667E1,1.3266666E1,1.095469E0,1.1280867E0,1.3564615E0,3.5344914E-3,6.250362E-1,8E-1,1.91357E3,8.1E1,1.0236609E0,9.9880457E-1,2.3133333E1,8.125563E-1,3.6857E0,9.881265E-1,2.59E1,3.158189E-1,1.5666667E1,3.158189E-1,2.12E1,2.4798682E-1,1.392677E5,6E1,1.31E1,-1.546761E-1,-9.59521E-1,-9.4628036E-1,-3.0885208E-1,5.666667E-2,1.7299406E-2,2.357676E4,2.8039002E-1,1.37E1,-2.4993758E-1,1.1515068E-1,7.82E2,7.092897E-1,1.5E-1,-7.2933406E-2,-7.332053E-1,1.83E1,1.0086739E0,-4.380707E-2,1.3063107E-1,2.3366667E1,2.2366667E1,-1E-5,3.0931628E-1,2.235767E0,9.598424E-1,1.9433332E1,9.7192127E-1,2.09E1,1.0220442E0,1.2981071E5,9.8968506E-1,3.0638E0,5.3412803E-2,2.6E1,5.6298536E-1,8.63E2,1.397E-1,7.022502E-2,2.853416E-1,1.0041794E0,1.0784574E0,1.712325E-1,9.854435E-1,5.5282414E-1,1.9912253E-1,5.305073E-1,2.21E1,5.197E1,3.1316008E-3,5.1E-1,9.9044144E-1,2.46E1,8.6666664E1,-8.745263E-1,-1.0993435E0,-6.9596285E-1,-1.0151676E0,-1.4558908E-1,-7.5878763E-1,-8.42687E-2,-5.4778695E-1,-4.947256E-3,-8.6720383E-1,-7.5756437E-1,-6.0076874E-1,-7.442933E-1,-5.534084E-1,-3.4861493E-1,-5.578323E-1,3.12103E-2,-7.721567E-1,-4.828284E-1,-1.606664E-1,-4.8865885E-1,-7.530318E-2,-1.4862105E-2,-3.5755205E-1,-4.2374414E-1,-2.9797032E-1,-2.7713418E-1,-8.372674E-2,-2.4802259E-1,-8.279748E-2,-1.0144673E-1,1.3843913E-1,2.1799676E-1,-9.602721E-2,-5.094944E-1,-7.221681E-2,-5.933296E-1,-1.2276118E0,-1.779941E0,-3.978615E-1,-4.391281E-1,-1.0503412E-1,-1.8811087E-1,-1.5495232E0,-1.6161843E-1,-1.2173389E-2,1.8127972E-1,5.293125E-2,9.806098E-2,-3.2524727E-2,1.3053916E-1,2.56832E-1,1.6267122E-1,-2.1753162E-1,3.6686835E-1,9.5584705E-2,1.5100153E-1,4.6289322E-1,1.6511211E-1,3.43196E-2,1.3611166E-1,3.5992712E-1,2.6622623E-1,3.2747664E-2,4.219833E-1,2.4353382E-1,2.2694023E-2,2.59917E-1,2.4942307E-2,-1.4371677E-1,1.932187E-1,3.2200232E-1,3.512542E-1,4.4465607E-1,2.1948507E-1,-1.2059607E-1,4.1190702E-1,5.231647E-1,4.119582E-1,1.3817558E-1,2.2855528E-1,6.237789E-1,2.5568762E-1,-8.4131695E-3,3.6922607E-1,4.4354227E-1,5.5791134E-1,3.738809E-1,4.4836685E-1,1.6790052E-1],"split_indices":[109,109,107,109,107,67,107,107,107,109,107,67,67,109,113,68,0,103,105,67,107,95,9,15,109,107,68,95,97,107,107,0,0,0,0,84,0,91,107,107,82,82,82,1,67,91,69,97,68,42,107,67,13,67,109,67,113,67,113,16,99,97,115,0,19,15,0,84,8,99,67,107,22,0,105,67,84,0,0,107,82,0,0,107,107,84,16,111,15,107,68,107,68,99,68,12,11,109,0,105,12,0,18,68,111,0,40,67,0,67,115,103,0,84,82,113,95,0,0,0,0,0,0,0,0,0,0,0,0,0,0,0,0,0,0,0,0,0,0,0,0,0,0,0,0,0,0,0,0,0,0,0,0,0,0,0,0,0,0,0,0,0,0,0,0,0,0,0,0,0,0,0,0,0,0,0,0,0,0,0,0,0,0,0,0,0,0,0,0,0,0,0,0,0,0,0,0,0,0,0,0,0,0,0,0,0,0],"split_type":[0,0,0,0,0,0,0,0,0,0,0,0,0,0,0,0,0,0,0,0,0,0,0,0,0,0,0,0,0,0,0,0,0,0,0,0,0,0,0,0,0,0,0,0,0,0,0,0,0,0,0,0,0,0,0,0,0,0,0,0,0,0,0,0,0,0,0,0,0,0,0,0,0,0,0,0,0,0,0,0,0,0,0,0,0,0,0,0,0,0,0,0,0,0,0,0,0,0,0,0,0,0,0,0,0,0,0,0,0,0,0,0,0,0,0,0,0,0,0,0,0,0,0,0,0,0,0,0,0,0,0,0,0,0,0,0,0,0,0,0,0,0,0,0,0,0,0,0,0,0,0,0,0,0,0,0,0,0,0,0,0,0,0,0,0,0,0,0,0,0,0,0,0,0,0,0,0,0,0,0,0,0,0,0,0,0,0,0,0,0,0,0,0,0,0,0,0,0,0,0,0,0,0,0,0,0,0],"sum_hessian":[8.722E3,1.996E3,6.726E3,5.6E2,1.436E3,3.872E3,2.854E3,1.78E2,3.82E2,9.68E2,4.68E2,2.786E3,1.086E3,1.01E3,1.844E3,1.63E2,1.5E1,1.92E2,1.9E2,5.59E2,4.09E2,3.31E2,1.37E2,9.2E1,2.694E3,5.83E2,5.03E2,4.31E2,5.79E2,9.42E2,9.02E2,1E0,1.62E2,1.4E1,1E0,1.87E2,5E0,7.8E1,1.12E2,3.39E2,2.2E2,7.7E1,3.32E2,1.3E1,3.18E2,7E0,1.3E2,3.5E1,5.7E1,1.388E3,1.306E3,2.21E2,3.62E2,3.46E2,1.57E2,2.92E2,1.39E2,8.5E1,4.94E2,8.1E2,1.32E2,4.32E2,4.7E2,1E0,1.86E2,7.5E1,3E0,6.6E1,4.6E1,1.31E2,2.08E2,1.35E2,8.5E1,6E1,1.7E1,3.14E2,1.8E1,1E0,1.2E1,2.59E2,5.9E1,2E0,5E0,1.09E2,2.1E1,1.4E1,2.1E1,4.2E1,1.5E1,1.369E3,1.9E1,5.88E2,7.18E2,5.5E1,1.66E2,1.14E2,2.48E2,2.3E2,1.16E2,2.4E1,1.33E2,1.1E1,2.81E2,8.2E1,5.7E1,6E0,7.9E1,4.72E2,2.2E1,7.2E2,9E1,1.31E2,1E0,2E1,4.12E2,1.72E2,2.98E2,3.9E1,1.47E2,1.7E1,5.8E1,2E0,6.4E1,2E0,4.4E1,1E0,1.3E2,1.03E2,1.05E2,7.6E1,5.9E1,2.7E1,5.8E1,1E0,5.9E1,1.3E1,4E0,3.04E2,1E1,1.1E1,7E0,1.11E2,1.48E2,3.1E1,2.8E1,8.2E1,2.7E1,1.5E1,6E0,6E0,8E0,1.5E1,6E0,2.9E1,1.3E1,1.4E1,1E0,1.7E2,1.199E3,5E0,1.4E1,1.98E2,3.9E2,4.89E2,2.29E2,3.4E1,2.1E1,1.23E2,4.3E1,1.11E2,3E0,2.21E2,2.7E1,5E0,2.25E2,2.1E1,3E0,9E0,1.24E2,2.77E2,4E0,6.9E1,1.3E1,3E0,5.4E1,5E0,1E0,1.9E1,6E1,1.5E2,3.22E2,2.1E1,1E0,6.6E1,6.54E2,8.1E1,9E0,3E0,1.28E2,1.8E1,2E0,2.83E2,1.29E2,1.44E2,2.8E1,2.95E2,3E0],"tree_param":{"num_deleted":"0","num_feature":"117","num_nodes":"207","size_leaf_vector":"1"}},{"base_weights":[-3.8323863E-4,-4.2590284E0,1.194599E0,-6.5394077E0,-3.2044237E0,1.0755538E-1,2.554437E0,-8.590839E0,-5.6615605E0,-3.7886455E0,-1.8110024E0,-5.213082E-1,2.1241539E0,1.7612846E0,2.803354E0,-8.8531885E0,-4.146324E0,-6.056006E0,-4.172421E0,-4.7171793E0,-3.451274E0,-2.121683E0,-9.450248E-1,-1.2442003E0,1.7210187E-1,9.4446516E-1,2.4821045E0,9.185503E-1,1.8920903E0,2.5935774E0,3.1711152E0,-8.878179E0,-3.0060312E-1,-6.328648E-1,-0E0,-6.1505413E0,-2.6708486E0,-4.700904E0,-2.946127E0,-5.081649E0,-3.159151E0,-4.273587E0,-3.1023707E0,-2.3775785E0,-1.429065E0,6.701214E-1,-1.051426E0,-2.0580266E0,7.0995994E-2,-4.685805E-1,6.3390636E-1,5.0166965E-1,1.3260682E0,2.8457818E0,1.8302698E0,1.8385608E-2,1.0397501E0,2.0573316E0,1.319237E0,3.0344274E0,2.3648357E0,3.6472015E0,2.9667747E0,-3.166116E-1,-1.2448329E0,-5.1425753E0,-6.4827423E0,-4.4819543E-1,-1.8470208E-1,-4.93001E0,-2.106438E0,-2.0391855E-1,-3.2318861E0,-9.5928615E-1,-4.845266E0,-3.5074434E0,-9.030419E-1,-4.961335E0,-3.6942883E0,-3.626477E0,-2.739267E0,-3.8829808E0,-2.278466E0,-1.9046233E0,-6.864656E-1,-5.7465076E-2,1.3124028E-1,-1.4184335E0,-6.1038524E-1,-2.8798225E0,-8.019987E-1,1.6185642E0,-5.130347E-1,-1.0463145E0,-1.1514666E-1,2.4308005E-1,9.5884603E-1,5.5982612E-2,9.089241E-1,2.1316016E-1,1.4547576E0,-4.6414024E-1,2.9238217E0,3.6864522E0,1.702708E0,-6.028625E-2,2.0944506E-1,-9.466365E-2,1.1104006E0,2.4217336E0,1.8506006E0,1.5059862E-1,1.4428905E0,1.7366704E0,3.0983746E0,2.0176167E0,2.5043757E0,4.7829456E0,3.5105705E0,3.0182493E0,-1.699474E0,-5.646709E-1,-7.786339E-1,-9.8422736E-2,-9.0938604E-1,-1.3257611E-1,-7.066318E-1,-7.343267E-2,-3.6189377E-1,-9.672459E-2,-4.6155462E-1,-7.1438223E-1,-5.227206E-1,-3.1063014E-1,-5.582136E-1,1.6121307E-2,-1.5076843E-1,-1.6629502E-1,-7.099994E-1,8.457174E-2,-5.2293736E-1,-3.9778993E-1,-5.388939E-1,-3.9652023E-1,-3.9269887E-3,-6.485898E-1,-1.8322022E-1,-2.7546757E-1,-3.6426228E-1,-1.5891865E-1,-3.2976416E-1,-1.6339582E-1,1.9669171E-2,-1.2349379E-1,-3.0445963E-1,-1.1726614E-1,6.304972E-3,-6.2510496E-1,-8.23207E-2,-5.792841E-1,-1.058107E-2,5.504898E-1,8.9011304E-2,4.9654108E-1,-9.4123736E-2,-2.0286351E-1,-6.3466705E-2,-1.5267552E-1,1.4748398E-3,-3.6730084E-1,4.6698377E-2,7.771838E-2,2.141056E-1,-1.8609022E-1,2.998177E-2,2.9580545E-2,1.5203169E-1,1.0499446E-1,-7.312289E-2,-0E0,2.0976603E-1,7.030053E-2,-1.9043455E-1,-2.8854844E-1,4.1452685E-1,6.5716314E-1,-3.819111E-2,1.8898867E-1,2.997131E-1,7.999733E-2,-2.758477E-3,6.704573E-2,1.7286836E-1,2.6154068E-1,3.685613E-1,-3.198016E-1,2.636764E-1,5.6994747E-2,-8.687296E-2,1.6381402E-1,2.4264866E-1,3.918107E-2,2.573204E-1,4.51099E-1,3.5654306E-1,1.8407106E-1,3.039961E-1,3.016503E-1,3.789569E-1,7.0430565E-1,3.09644E-1,5.0636965E-1,3.5192874E-1,4.6753326E-1,3.8821954E-1,-1.0722967E0,9.377368E-2],"categories":[],"categories_nodes":[],"categories_segments":[],"categories_sizes":[],"default_left":[0,0,1,0,1,0,0,1,1,0,0,1,0,0,0,1,0,0,0,0,0,0,0,0,0,1,0,0,0,0,0,0,0,0,0,0,0,0,0,0,0,0,0,0,0,0,0,0,0,0,0,0,0,0,0,0,0,0,0,0,0,0,0,0,0,1,0,0,0,0,0,0,0,0,0,0,0,0,0,0,0,0,0,0,0,0,0,0,0,1,0,0,0,0,0,0,0,0,0,0,0,0,0,0,0,0,0,0,0,0,0,0,0,0,0,1,1,1,1,1,0,0,0,0,0,0,0,0,0,0,0,0,0,0,0,0,0,0,0,0,0,0,0,0,0,0,0,0,0,0,0,0,0,0,0,0,0,0,0,0,0,0,0,0,0,0,0,0,0,0,0,0,0,0,0,0,0,0,0,0,0,0,0,0,0,0,0,0,0,0,0,0,0,0,0,0,0,0,0,0,0,0,0,0,0,0,0,0,0,0,0,0,0,0,0,0,0],"id":5,"left_children":[1,3,5,7,9,11,13,15,17,19,21,23,25,27,29,31,33,35,37,39,41,43,45,47,49,51,53,55,57,59,61,63,-1,-1,-1,65,67,69,71,73,75,77,79,81,83,85,87,89,91,93,95,97,99,101,103,105,107,109,111,113,115,117,119,-1,-1,121,123,-1,-1,125,127,-1,129,-1,131,133,135,137,139,141,143,145,147,149,151,-1,-1,153,155,157,159,161,163,165,167,169,171,173,175,177,179,181,183,185,187,-1,189,-1,191,193,195,197,199,201,203,205,207,209,211,213,215,-1,-1,-1,-1,-1,-1,-1,-1,-1,-1,-1,-1,-1,-1,-1,-1,-1,-1,-1,-1,-1,-1,-1,-1,-1,-1,-1,-1,-1,-1,-1,-1,-1,-1,-1,-1,-1,-1,-1,-1,-1,-1,-1,-1,-1,-1,-1,-1,-1,-1,-1,-1,-1,-1,-1,-1,-1,-1,-1,-1,-1,-1,-1,-1,-1,-1,-1,-1,-1,-1,-1,-1,-1,-1,-1,-1,-1,-1,-1,-1,-1,-1,-1,-1,-1,-1,-1,-1,-1,-1,-1,-1,-1,-1,-1,-1],"loss_changes":[4.452533E4,4.585867E3,1.0098699E4,1.0334043E3,1.060669E3,4.8180664E3,5.9319336E2,1.6612305E2,2.2133789E2,2.7029688E2,1.0239087E2,1.4520645E3,3.7837524E2,7.802173E1,1.6820508E2,5.515625E0,1.9423874E1,8.781641E1,4.3953735E1,1.1911328E2,1.8000146E2,4.6496094E1,1.8900414E1,1.5182451E3,4.3798175E2,3.491002E1,1.5772656E2,1.0796669E1,5.615088E1,1.4021289E2,6.8171875E1,2.4628906E0,0E0,0E0,0E0,7.006641E1,2.7948456E0,2.5096191E1,7.4452515E0,4.333008E1,3.458786E1,5.817505E1,8.008984E1,2.0299805E1,2.6562256E1,2.556723E0,1.4865173E1,9.0136304E2,4.9194296E2,1.2637242E2,1.08848724E2,1.8020283E1,1.5685394E1,1.1598218E2,5.183612E1,1.2073191E0,1.1580833E1,3.1134521E1,2.0422867E1,3.494629E1,4.1185547E1,1.8252197E1,1.4742773E2,0E0,0E0,1.4138672E1,2.2456055E1,0E0,0E0,2.202356E1,3.5826454E0,0E0,1.4127197E0,0E0,2.892041E1,1.561438E1,1.6863303E0,3.1114258E1,2.4909058E1,2.1442139E1,7.53833E1,1.4166718E1,1.3604309E1,1.3394012E1,1.3496118E1,0E0,0E0,1.9103935E1,7.171671E0,1.9245791E3,8.439077E2,3.3619412E2,2.5942722E2,5.539969E1,4.7522285E1,1.0301402E2,1.070397E2,1.1003679E1,6.091675E0,5.6620903E0,6.789871E0,1.051828E1,9.433887E1,6.2576477E1,3.307434E1,0E0,9.09739E-1,0E0,5.9166946E0,1.4286926E1,5.0453613E1,3.265313E0,7.739685E0,3.143547E0,2.3376953E1,2.7785278E1,4.2325684E1,1.7533569E0,1.36154785E1,3.479883E1,1.07353775E2,0E0,0E0,0E0,0E0,0E0,0E0,0E0,0E0,0E0,0E0,0E0,0E0,0E0,0E0,0E0,0E0,0E0,0E0,0E0,0E0,0E0,0E0,0E0,0E0,0E0,0E0,0E0,0E0,0E0,0E0,0E0,0E0,0E0,0E0,0E0,0E0,0E0,0E0,0E0,0E0,0E0,0E0,0E0,0E0,0E0,0E0,0E0,0E0,0E0,0E0,0E0,0E0,0E0,0E0,0E0,0E0,0E0,0E0,0E0,0E0,0E0,0E0,0E0,0E0,0E0,0E0,0E0,0E0,0E0,0E0,0E0,0E0,0E0,0E0,0E0,0E0,0E0,0E0,0E0,0E0,0E0,0E0,0E0,0E0,0E0,0E0,0E0,0E0,0E0,0E0,0E0,0E0,0E0,0E0,0E0,0E0],"parents":[2147483647,0,0,1,1,2,2,3,3,4,4,5,5,6,6,7,7,8,8,9,9,10,10,11,11,12,12,13,13,14,14,15,15,16,16,17,17,18,18,19,19,20,20,21,21,22,22,23,23,24,24,25,25,26,26,27,27,28,28,29,29,30,30,31,31,35,35,36,36,37,37,38,38,39,39,40,40,41,41,42,42,43,43,44,44,45,45,46,46,47,47,48,48,49,49,50,50,51,51,52,52,53,53,54,54,55,55,56,56,57,57,58,58,59,59,60,60,61,61,62,62,65,65,66,66,69,69,70,70,72,72,74,74,75,75,76,76,77,77,78,78,79,79,80,80,81,81,82,82,83,83,84,84,87,87,88,88,89,89,90,90,91,91,92,92,93,93,94,94,95,95,96,96,97,97,98,98,99,99,100,100,101,101,102,102,103,103,104,104,106,106,108,108,109,109,110,110,111,111,112,112,113,113,114,114,115,115,116,116,117,117,118,118,119,119,120,120],"right_children":[2,4,6,8,10,12,14,16,18,20,22,24,26,28,30,32,34,36,38,40,42,44,46,48,50,52,54,56,58,60,62,64,-1,-1,-1,66,68,70,72,74,76,78,80,82,84,86,88,90,92,94,96,98,100,102,104,106,108,110,112,114,116,118,120,-1,-1,122,124,-1,-1,126,128,-1,130,-1,132,134,136,138,140,142,144,146,148,150,152,-1,-1,154,156,158,160,162,164,166,168,170,172,174,176,178,180,182,184,186,188,-1,190,-1,192,194,196,198,200,202,204,206,208,210,212,214,216,-1,-1,-1,-1,-1,-1,-1,-1,-1,-1,-1,-1,-1,-1,-1,-1,-1,-1,-1,-1,-1,-1,-1,-1,-1,-1,-1,-1,-1,-1,-1,-1,-1,-1,-1,-1,-1,-1,-1,-1,-1,-1,-1,-1,-1,-1,-1,-1,-1,-1,-1,-1,-1,-1,-1,-1,-1,-1,-1,-1,-1,-1,-1,-1,-1,-1,-1,-1,-1,-1,-1,-1,-1,-1,-1,-1,-1,-1,-1,-1,-1,-1,-1,-1,-1,-1,-1,-1,-1,-1,-1,-1,-1,-1,-1,-1],"split_conditions":[1.95E1,1.21E1,2.4933332E1,6.9E0,1.7E1,-6.010467E-1,2.6533333E1,8.366667E0,1.24E1,1.31E1,2.06E1,2.19E1,7.6E-1,2.54E1,2.8166666E1,1.5509112E5,5.7806943E-2,-8.4007305E-1,1.5566667E1,1.1651655E0,1.43E1,-8.3172977E-1,-7.3402256E-1,-8.174463E-1,2.2566668E1,2.53E1,9.7454387E-1,4.9E1,1.0061238E0,1.7888889E-1,2.0611112E-1,-9.9841857E-1,-3.0060312E-1,-6.328648E-1,-0E0,-9.5418876E-1,1.08147316E-1,-7.900626E-1,9.229848E-1,1.0166667E1,8.2001425E-2,-9.509736E-1,5.754E1,6.0333332E1,3.6936156E-2,1.22375555E-1,-2.1084419E-1,1.91357E3,4.0735048E-1,2.0766666E1,2.49E1,2.3666666E1,4E-2,2.76E-2,-5.8974767E-1,1.20101735E-1,9.6761346E-1,1.9388889E-1,-9.496301E-1,5.7E1,7.7666664E1,2E-1,5.37099E1,-3.166116E-1,-1.2448329E0,6.8333336E1,1.0784574E0,-4.4819543E-1,-1.8470208E-1,5.666667E-2,1.23929195E-1,-2.0391855E-1,-9.9972636E-1,-9.5928615E-1,6.823E1,9.773837E-1,3.8306892E-2,7.0333336E1,-9.4991094E-1,9.99891E-1,3.48E1,1.95E-1,4.9333334E-1,3.0473514E-2,1.83E1,-5.7465076E-2,1.3124028E-1,6.5351E-2,6.49E2,1.7133333E1,1.93E1,1.95972E3,7.27845E-3,-8.111449E-1,3.684E1,4.8E1,8.2333336E1,1.7866667E1,1.2310794E-2,1.2E-1,1.1535782E5,9.688766E-1,-5.9421885E-1,9.8450816E-1,-4.0042138E-1,-6.028625E-2,2.938889E-1,-9.466365E-2,2.34E1,7.7333336E1,2.2E0,1.2132933E-1,2.59E1,6.8943948E-3,2.2489814E-1,5.4E1,2.78E1,7.7E1,3.12E1,1.38E1,3.3731017E-2,-5.646709E-1,-7.786339E-1,-9.8422736E-2,-9.0938604E-1,-1.3257611E-1,-7.066318E-1,-7.343267E-2,-3.6189377E-1,-9.672459E-2,-4.6155462E-1,-7.1438223E-1,-5.227206E-1,-3.1063014E-1,-5.582136E-1,1.6121307E-2,-1.5076843E-1,-1.6629502E-1,-7.099994E-1,8.457174E-2,-5.2293736E-1,-3.9778993E-1,-5.388939E-1,-3.9652023E-1,-3.9269887E-3,-6.485898E-1,-1.8322022E-1,-2.7546757E-1,-3.6426228E-1,-1.5891865E-1,-3.2976416E-1,-1.6339582E-1,1.9669171E-2,-1.2349379E-1,-3.0445963E-1,-1.1726614E-1,6.304972E-3,-6.2510496E-1,-8.23207E-2,-5.792841E-1,-1.058107E-2,5.504898E-1,8.9011304E-2,4.9654108E-1,-9.4123736E-2,-2.0286351E-1,-6.3466705E-2,-1.5267552E-1,1.4748398E-3,-3.6730084E-1,4.6698377E-2,7.771838E-2,2.141056E-1,-1.8609022E-1,2.998177E-2,2.9580545E-2,1.5203169E-1,1.0499446E-1,-7.312289E-2,-0E0,2.0976603E-1,7.030053E-2,-1.9043455E-1,-2.8854844E-1,4.1452685E-1,6.5716314E-1,-3.819111E-2,1.8898867E-1,2.997131E-1,7.999733E-2,-2.758477E-3,6.704573E-2,1.7286836E-1,2.6154068E-1,3.685613E-1,-3.198016E-1,2.636764E-1,5.6994747E-2,-8.687296E-2,1.6381402E-1,2.4264866E-1,3.918107E-2,2.573204E-1,4.51099E-1,3.5654306E-1,1.8407106E-1,3.039961E-1,3.016503E-1,3.789569E-1,7.0430565E-1,3.09644E-1,5.0636965E-1,3.5192874E-1,4.6753326E-1,3.8821954E-1,-1.0722967E0,9.377368E-2],"split_indices":[109,109,107,109,107,66,107,107,107,107,107,109,84,109,107,99,2,66,107,82,109,66,16,66,107,109,68,97,68,114,114,16,0,0,0,21,1,66,82,107,2,66,103,95,90,0,36,69,89,107,109,107,86,12,66,0,68,114,66,97,95,91,13,0,0,95,111,0,0,84,9,0,15,0,103,68,11,95,66,68,115,114,84,2,109,0,0,6,105,107,107,73,11,66,103,97,95,107,11,84,99,68,66,68,66,0,114,0,109,95,115,3,107,2,22,97,109,97,109,115,1,0,0,0,0,0,0,0,0,0,0,0,0,0,0,0,0,0,0,0,0,0,0,0,0,0,0,0,0,0,0,0,0,0,0,0,0,0,0,0,0,0,0,0,0,0,0,0,0,0,0,0,0,0,0,0,0,0,0,0,0,0,0,0,0,0,0,0,0,0,0,0,0,0,0,0,0,0,0,0,0,0,0,0,0,0,0,0,0,0,0,0,0,0,0,0,0],"split_type":[0,0,0,0,0,0,0,0,0,0,0,0,0,0,0,0,0,0,0,0,0,0,0,0,0,0,0,0,0,0,0,0,0,0,0,0,0,0,0,0,0,0,0,0,0,0,0,0,0,0,0,0,0,0,0,0,0,0,0,0,0,0,0,0,0,0,0,0,0,0,0,0,0,0,0,0,0,0,0,0,0,0,0,0,0,0,0,0,0,0,0,0,0,0,0,0,0,0,0,0,0,0,0,0,0,0,0,0,0,0,0,0,0,0,0,0,0,0,0,0,0,0,0,0,0,0,0,0,0,0,0,0,0,0,0,0,0,0,0,0,0,0,0,0,0,0,0,0,0,0,0,0,0,0,0,0,0,0,0,0,0,0,0,0,0,0,0,0,0,0,0,0,0,0,0,0,0,0,0,0,0,0,0,0,0,0,0,0,0,0,0,0,0,0,0,0,0,0,0,0,0,0,0,0,0,0,0,0,0,0,0,0,0,0,0,0,0],"sum_hessian":[8.747E3,1.916E3,6.831E3,6.04E2,1.312E3,3.797E3,3.034E3,1.78E2,4.26E2,9.23E2,3.89E2,2.895E3,9.02E2,7.27E2,2.307E3,1.67E2,1.1E1,3.34E2,9.2E1,2.42E2,6.81E2,2.85E2,1.04E2,1.417E3,1.478E3,2.11E2,6.91E2,9.9E1,6.28E2,1.475E3,8.32E2,1.66E2,1E0,1E1,1E0,3.24E2,1E1,6.2E1,3E1,1.94E2,4.8E1,1.99E2,4.82E2,2.06E2,7.9E1,6E0,9.8E1,8.75E2,5.42E2,6.19E2,8.59E2,9.9E1,1.12E2,4.41E2,2.5E2,1.2E1,8.7E1,4.85E2,1.43E2,4.99E2,9.76E2,2.44E2,5.88E2,1E0,1.65E2,8.5E1,2.39E2,6E0,4E0,5.6E1,6E0,6E0,2.4E1,1.9E1,1.75E2,4.1E1,7E0,8.7E1,1.12E2,1.93E2,2.89E2,1E1,1.96E2,4.7E1,3.2E1,1E0,5E0,5.2E1,4.6E1,5.28E2,3.47E2,1.48E2,3.94E2,2.34E2,3.85E2,3.91E2,4.68E2,4.8E1,5.1E1,1.2E1,1E2,1E1,4.31E2,1.4E1,2.36E2,3E0,9E0,3E0,8.4E1,1.71E2,3.14E2,1.4E1,1.29E2,2.5E1,4.74E2,2.85E2,6.91E2,2.2E1,2.22E2,5.82E2,6E0,2.7E1,5.8E1,1E0,2.38E2,2E0,5.4E1,2E0,4E0,1E0,2.3E1,1.38E2,3.7E1,1.3E1,2.8E1,1E0,6E0,3E0,8.4E1,1E0,1.11E2,4.7E1,1.46E2,2.79E2,1E1,7E0,3E0,1.05E2,9.1E1,1.9E1,2.8E1,2E1,1.2E1,3.2E1,2E1,3.4E1,1.2E1,3.11E2,2.17E2,6.1E1,2.86E2,4.3E1,1.05E2,1.4E1,3.8E2,1.38E2,9.6E1,4.3E1,3.42E2,1.1E1,3.8E2,2.76E2,1.92E2,4E0,4.4E1,1.1E1,4E1,7E0,5E0,3E0,9.7E1,5E0,5E0,3E0,4.28E2,1.1E1,3E0,1.34E2,1.02E2,3E0,6E0,1.5E1,6.9E1,5.1E1,1.2E2,2E0,3.12E2,1.1E1,3E0,7E1,5.9E1,2E0,2.3E1,3.8E2,9.4E1,5.4E1,2.31E2,2.62E2,4.29E2,1.9E1,3E0,1.97E2,2.5E1,2.42E2,3.4E2,1E0,5E0],"tree_param":{"num_deleted":"0","num_feature":"117","num_nodes":"217","size_leaf_vector":"1"}},{"base_weights":[-2.8954208E-2,-3.589516E0,1.0504937E0,-5.2786465E0,-2.5118191E0,1.06811285E-1,2.1576297E0,-7.128167E0,-4.566142E0,-3.1527717E0,-1.6700743E0,-4.5001468E-1,1.8549938E0,1.5506406E0,2.4256318E0,-7.995003E0,-6.5126686E0,-5.480635E0,-4.0304747E0,-3.4879613E0,-2.4611297E0,-2.7049465E0,-1.3017695E0,-8.580194E-1,4.5096123E-1,8.1186944E-1,2.1421049E0,1.1426556E0,1.7703148E0,2.3393734E0,3.119486E0,-4.687208E-1,-1.1351036E0,-7.2558017E0,-5.7047243E0,-4.625843E0,-5.932024E0,-3.6451347E0,-4.7718954E0,-3.6775866E0,-2.1496646E0,-2.5522842E0,-1.0498754E0,-3.2638333E0,-1.5579772E0,-4.5404404E-1,-1.5224029E0,-1.3064333E0,1.0207149E-1,-3.9006297E-2,1.0151588E0,-2.931896E-1,9.021546E-1,2.4380376E0,1.5471773E0,-2.3456965E-1,1.2085325E0,1.1316766E0,1.8596343E0,2.757347E0,2.1684687E0,2.862643E0,3.8654897E0,-3.7655213E-1,-1.0278916E0,-1.7989192E0,-5.8496895E0,-2.7944493E0,-5.051947E0,-5.9801273E0,-1.7591697E0,-3.86996E0,-2.7270179E0,-4.990248E0,-2.336864E0,-3.7881052E0,-2.4123752E0,-2.973358E0,-1.5241271E0,-2.72179E0,-1.8321842E0,-9.782877E-2,-2.7421042E-1,-3.4955006E0,-1.193283E0,-1.9008405E0,-3.5514626E-1,4.1805518E-1,-8.99282E-1,-1.110319E0,-1.9806285E0,-1.9876028E0,-5.2013564E-1,-1.0366429E0,6.1136675E-1,1.7668872E-1,-8.7628764E-1,6.9444144E-1,1.8975546E0,-6.827936E-1,1.2686396E-1,9.95543E-1,7.169041E-2,-2.1871233E0,2.4744902E0,2.0701556E0,1.2240828E0,-1.7626921E0,4.252196E-1,6.0286963E-1,1.292529E0,1.3240502E0,6.877907E-1,1.3013519E0,1.9514613E0,3.087039E0,2.571905E0,1.6893053E0,2.2756753E0,3.2003431E0,2.3433273E0,5.9807855E-1,3.8191655E-1,-3.4179962E-1,-9.4917834E-2,-8.4786594E-2,-8.2757884E-1,-4.166378E-1,5.8683E-3,-7.199187E-1,4.1971434E-2,-8.529747E-1,-5.074859E-1,-3.654596E-1,-0E0,-6.7878854E-1,-5.081362E-1,-3.9266625E-1,8.634254E-2,-2.7509961E-2,-7.0355296E-1,-1.8854158E-1,-5.396806E-1,-7.7337784E-1,-5.1781625E-1,-4.8901606E-1,-1.5551831E-1,-3.1411904E-1,-5.8305424E-1,-6.946605E-2,-2.4941339E-1,-4.2315388E-1,-2.980102E-1,-2.768863E-1,2.1446928E-2,-1.4170508E-1,7.280656E-2,-5.7459444E-1,-3.895777E-1,-2.9334253E-1,1.2437649E-1,-3.3677104E-1,-1.2239177E-1,1.1007182E-2,-1.7360766E-1,-3.924774E-2,1.5272893E-1,-2.266666E-1,-5.2795187E-2,-2.0967478E-1,-1.0816905E-1,-4.1222745E-1,-1.9881064E-1,-4.595094E-1,-5.6219738E-2,-1.736733E-1,-7.291242E-3,-2.2174577E-1,2.7700645E-1,2.7761975E-2,3.3864093E-1,-1.3483651E-1,5.0549254E-2,-2.0262289E-1,-3.7658394E-3,-1.1837896E-1,1.1091015E-1,5.7551563E-2,4.023469E-1,-1.24372266E-1,-2.1068833E-3,1.7393803E-3,1.4938396E-1,-3.2858334E-2,8.937417E-2,-5.686374E-2,-3.6042568E-1,4.1987273E-1,3.0296192E-1,3.0754262E-1,3.8715336E-2,1.0105082E-1,2.3846039E-1,-3.1346363E-1,-8.610904E-2,1.0430816E-1,-5.2563705E-2,1.0125163E-2,1.01449214E-1,1.4978305E-1,2.2455592E-1,8.8942714E-2,2.1044062E-1,5.603553E-2,1.5196365E-1,2.9116198E-2,2.0092699E-1,2.9121512E-1,2.360642E-1,3.529057E-1,4.7184038E-1,3.619904E-1,5.7066385E-2,2.4571799E-1,-1.0018663E0,3.4145787E-1,2.6015043E-1,4.5180985E-1,-0E0,6.481092E-2,3.414357E-1],"categories":[],"categories_nodes":[],"categories_segments":[],"categories_sizes":[],"default_left":[0,0,1,0,0,0,0,0,0,1,0,1,0,0,0,0,0,0,0,0,0,0,0,0,0,0,0,0,0,0,0,0,0,0,0,0,0,0,1,0,0,0,0,0,0,0,0,1,0,0,0,0,1,0,0,0,0,0,0,0,0,0,0,0,0,0,0,0,0,0,0,0,0,0,0,0,0,0,0,0,0,0,0,0,0,0,0,0,0,0,0,0,0,0,0,0,0,0,0,0,0,0,0,0,0,0,0,0,0,0,0,0,0,0,0,0,0,0,0,0,0,0,0,0,0,0,0,0,0,0,0,0,0,0,0,0,0,0,0,0,0,0,0,0,0,0,0,0,0,0,0,0,0,0,0,0,0,0,0,0,0,0,0,0,0,0,0,0,0,0,0,0,0,0,0,0,0,0,0,0,0,0,0,0,0,0,0,0,0,0,0,0,0,0,0,0,0,0,0,0,0,0,0,0,0,0,0,0,0,0,0,0,0,0,0,0,0,0,0,0,0,0,0,0,0,0,0,0,0,0,0],"id":6,"left_children":[1,3,5,7,9,11,13,15,17,19,21,23,25,27,29,31,33,35,37,39,41,43,45,47,49,51,53,55,57,59,61,-1,-1,63,65,67,69,71,73,75,77,79,81,83,85,87,89,91,93,95,97,99,101,103,105,107,109,111,113,115,117,119,121,-1,-1,123,125,127,129,131,133,135,137,139,141,143,145,147,149,151,153,155,-1,157,159,161,163,165,167,169,171,173,175,177,179,181,183,185,187,189,-1,191,193,195,197,199,201,203,205,207,209,211,213,215,217,219,221,223,225,227,229,-1,-1,-1,-1,-1,-1,-1,-1,-1,-1,-1,-1,-1,-1,-1,-1,-1,-1,-1,-1,-1,-1,-1,-1,-1,-1,-1,-1,-1,-1,-1,-1,-1,-1,-1,-1,-1,-1,-1,-1,-1,-1,-1,-1,-1,-1,-1,-1,-1,-1,-1,-1,-1,-1,-1,-1,-1,-1,-1,-1,-1,-1,-1,-1,-1,-1,-1,-1,-1,-1,-1,-1,-1,-1,-1,-1,-1,-1,-1,-1,-1,-1,-1,-1,-1,-1,-1,-1,-1,-1,-1,-1,-1,-1,-1,-1,-1,-1,-1,-1,-1,-1,-1,-1,-1,-1,-1,-1,-1,-1],"loss_changes":[3.347369E4,3.6725547E3,6.9819443E3,1.0006719E3,6.6210547E2,3.5143298E3,4.9560156E2,5.5609375E1,2.5437402E2,1.5248877E2,2.0073083E2,1.00702045E3,2.5893726E2,8.213086E1,1.18765625E2,1.6478027E1,3.190332E1,4.8268555E1,8.3836914E1,1.0979834E2,2.6604736E1,8.360315E1,7.3673584E1,8.118533E2,2.3625645E2,1.9328789E1,1.1561328E2,3.0732025E1,3.224243E1,1.2849023E2,3.131128E1,0E0,0E0,4.8271484E0,2.649585E1,4.3465454E1,1.3870605E1,3.802368E1,5.0505127E1,4.6410645E1,2.5930603E1,2.053955E1,1.3567205E1,3.9493896E1,1.8860947E1,3.313917E1,5.6901855E1,6.8689966E2,3.4929288E2,8.2981674E1,1.1064041E2,7.752553E0,1.3472504E1,8.270459E1,3.5694885E1,1.7241875E1,1.5165924E1,5.442253E0,2.4241089E1,2.3920898E1,6.482422E1,2.2042236E1,1.2309082E1,0E0,0E0,7.9933643E-1,1.9034668E1,9.422913E0,3.3738525E1,1.0634277E1,4.8582497E0,2.4363037E1,1.6298859E1,1.9989746E1,1.1859558E1,3.159082E1,4.610141E1,1.0637634E1,8.669067E0,2.3496704E1,1.37760315E1,5.8141174E0,0E0,2.2574951E1,2.3191416E1,1.6615784E1,4.89085E0,1.4147957E1,2.0242298E1,2.0626328E1,7.491156E1,1.4148159E3,2.0185315E2,3.1191052E2,3.1019403E2,7.731707E1,4.559539E1,4.5334106E1,1.5138297E2,1.5677528E0,0E0,1.1182709E1,3.5386868E0,1.3878994E0,6.550586E1,1.9009949E1,3.33844E1,9.731884E-1,3.4697542E0,2.535944E0,1.7152985E1,5.3156815E0,2.3519096E0,1.1219162E1,1.1430664E1,2.0716675E1,1.1449219E1,1.6516595E2,7.055664E1,1.0068481E1,1.2134979E1,0E0,0E0,0E0,0E0,0E0,0E0,0E0,0E0,0E0,0E0,0E0,0E0,0E0,0E0,0E0,0E0,0E0,0E0,0E0,0E0,0E0,0E0,0E0,0E0,0E0,0E0,0E0,0E0,0E0,0E0,0E0,0E0,0E0,0E0,0E0,0E0,0E0,0E0,0E0,0E0,0E0,0E0,0E0,0E0,0E0,0E0,0E0,0E0,0E0,0E0,0E0,0E0,0E0,0E0,0E0,0E0,0E0,0E0,0E0,0E0,0E0,0E0,0E0,0E0,0E0,0E0,0E0,0E0,0E0,0E0,0E0,0E0,0E0,0E0,0E0,0E0,0E0,0E0,0E0,0E0,0E0,0E0,0E0,0E0,0E0,0E0,0E0,0E0,0E0,0E0,0E0,0E0,0E0,0E0,0E0,0E0,0E0,0E0,0E0,0E0,0E0,0E0,0E0,0E0,0E0,0E0,0E0,0E0,0E0,0E0],"parents":[2147483647,0,0,1,1,2,2,3,3,4,4,5,5,6,6,7,7,8,8,9,9,10,10,11,11,12,12,13,13,14,14,15,15,16,16,17,17,18,18,19,19,20,20,21,21,22,22,23,23,24,24,25,25,26,26,27,27,28,28,29,29,30,30,33,33,34,34,35,35,36,36,37,37,38,38,39,39,40,40,41,41,42,42,43,43,44,44,45,45,46,46,47,47,48,48,49,49,50,50,51,51,52,52,53,53,54,54,55,55,56,56,57,57,58,58,59,59,60,60,61,61,62,62,65,65,66,66,67,67,68,68,69,69,70,70,71,71,72,72,73,73,74,74,75,75,76,76,77,77,78,78,79,79,80,80,81,81,83,83,84,84,85,85,86,86,87,87,88,88,89,89,90,90,91,91,92,92,93,93,94,94,95,95,96,96,97,97,98,98,99,99,101,101,102,102,103,103,104,104,105,105,106,106,107,107,108,108,109,109,110,110,111,111,112,112,113,113,114,114,115,115,116,116,117,117,118,118,119,119,120,120],"right_children":[2,4,6,8,10,12,14,16,18,20,22,24,26,28,30,32,34,36,38,40,42,44,46,48,50,52,54,56,58,60,62,-1,-1,64,66,68,70,72,74,76,78,80,82,84,86,88,90,92,94,96,98,100,102,104,106,108,110,112,114,116,118,120,122,-1,-1,124,126,128,130,132,134,136,138,140,142,144,146,148,150,152,154,156,-1,158,160,162,164,166,168,170,172,174,176,178,180,182,184,186,188,190,-1,192,194,196,198,200,202,204,206,208,210,212,214,216,218,220,222,224,226,228,230,-1,-1,-1,-1,-1,-1,-1,-1,-1,-1,-1,-1,-1,-1,-1,-1,-1,-1,-1,-1,-1,-1,-1,-1,-1,-1,-1,-1,-1,-1,-1,-1,-1,-1,-1,-1,-1,-1,-1,-1,-1,-1,-1,-1,-1,-1,-1,-1,-1,-1,-1,-1,-1,-1,-1,-1,-1,-1,-1,-1,-1,-1,-1,-1,-1,-1,-1,-1,-1,-1,-1,-1,-1,-1,-1,-1,-1,-1,-1,-1,-1,-1,-1,-1,-1,-1,-1,-1,-1,-1,-1,-1,-1,-1,-1,-1,-1,-1,-1,-1,-1,-1,-1,-1,-1,-1,-1,-1,-1,-1],"split_conditions":[2.02E1,1.31E1,2.4733334E1,8.366667E0,1.7E1,7.992139E-1,2.6666666E1,4.9E0,4.19E2,1.53E1,1.7133333E1,2.42E1,7.4333334E-1,2.66E1,2.9033333E1,6.0666668E1,1.0126686E0,8.4333336E1,1.7664994E0,5.6784743E-1,1E0,5.36E-2,-9.698821E-1,6.157078E-1,2.3766666E1,1.52E-2,9.751565E-1,9.6761346E-1,7.1333336E1,1.0466666E1,3.0433332E1,-4.687208E-1,-1.1351036E0,-9.976591E-1,4.5E1,-9.600597E-1,1.0343062E0,5.348572E-1,1.4066667E1,2.2711859E0,1.0313337E0,5.5282414E-1,7.8891516E-2,9.980728E-1,6.971139E-1,1.4654992E0,5.531963E-1,5E1,9.739759E-1,1.0298487E0,2.73E1,1.409418E-1,2.25E1,8.043034E-1,-2.583826E-1,6.8333336E1,5.9E1,1.0048108E0,3.8695216E-1,1.0119489E3,1E0,5.1914267E-2,1.2061255E5,-3.7655213E-1,-1.0278916E0,1.3770911E-1,4.6666667E-2,4.17773E1,1.0342828E0,2.3082035E0,1.4216338E-1,5.3E1,9E2,7.86168E-1,9.5748985E-1,4.6E1,1.0201653E0,5.4333335E-1,6.956696E-2,2.0731573E-1,1.0135568E0,1.2921385E-1,-2.7421042E-1,1.35E1,1.7E-1,3.6666667E-1,1.4438042E-1,1.93E1,1.26E1,2.0133333E1,3.7601185E-1,1.91357E3,2.14E1,9.964174E-1,1.91357E3,1E-2,7.2E1,3.0392128E-1,6.2E1,2.3366667E1,1.2686396E-1,8.0968916E-1,2.44E1,2.1282434E-2,3.8074907E-2,2.5624734E-1,9.003087E-1,1.3487533E-1,2.1E-1,6.51E2,9.354905E-1,1.4E-1,6.6333336E1,3.158189E-1,1.4233334E1,2.86E1,1.3954612E5,5.37099E1,9.895043E-1,1.3897267E5,4.8E0,5.9807855E-1,3.8191655E-1,-3.4179962E-1,-9.4917834E-2,-8.4786594E-2,-8.2757884E-1,-4.166378E-1,5.8683E-3,-7.199187E-1,4.1971434E-2,-8.529747E-1,-5.074859E-1,-3.654596E-1,-0E0,-6.7878854E-1,-5.081362E-1,-3.9266625E-1,8.634254E-2,-2.7509961E-2,-7.0355296E-1,-1.8854158E-1,-5.396806E-1,-7.7337784E-1,-5.1781625E-1,-4.8901606E-1,-1.5551831E-1,-3.1411904E-1,-5.8305424E-1,-6.946605E-2,-2.4941339E-1,-4.2315388E-1,-2.980102E-1,-2.768863E-1,2.1446928E-2,-1.4170508E-1,7.280656E-2,-5.7459444E-1,-3.895777E-1,-2.9334253E-1,1.2437649E-1,-3.3677104E-1,-1.2239177E-1,1.1007182E-2,-1.7360766E-1,-3.924774E-2,1.5272893E-1,-2.266666E-1,-5.2795187E-2,-2.0967478E-1,-1.0816905E-1,-4.1222745E-1,-1.9881064E-1,-4.595094E-1,-5.6219738E-2,-1.736733E-1,-7.291242E-3,-2.2174577E-1,2.7700645E-1,2.7761975E-2,3.3864093E-1,-1.3483651E-1,5.0549254E-2,-2.0262289E-1,-3.7658394E-3,-1.1837896E-1,1.1091015E-1,5.7551563E-2,4.023469E-1,-1.24372266E-1,-2.1068833E-3,1.7393803E-3,1.4938396E-1,-3.2858334E-2,8.937417E-2,-5.686374E-2,-3.6042568E-1,4.1987273E-1,3.0296192E-1,3.0754262E-1,3.8715336E-2,1.0105082E-1,2.3846039E-1,-3.1346363E-1,-8.610904E-2,1.0430816E-1,-5.2563705E-2,1.0125163E-2,1.01449214E-1,1.4978305E-1,2.2455592E-1,8.8942714E-2,2.1044062E-1,5.603553E-2,1.5196365E-1,2.9116198E-2,2.0092699E-1,2.9121512E-1,2.360642E-1,3.529057E-1,4.7184038E-1,3.619904E-1,5.7066385E-2,2.4571799E-1,-1.0018663E0,3.4145787E-1,2.6015043E-1,4.5180985E-1,-0E0,6.481092E-2,3.414357E-1],"split_indices":[109,109,107,107,109,67,107,109,105,107,107,109,84,109,107,95,68,95,111,67,86,104,23,67,107,12,68,68,95,113,107,0,0,16,97,19,68,67,107,111,82,67,4,40,67,111,88,97,68,68,109,8,115,67,19,95,97,68,67,10,91,2,99,0,0,0,84,12,68,111,0,97,105,82,23,97,68,84,90,14,68,0,0,115,86,84,0,107,115,107,67,69,107,40,69,86,97,67,97,107,0,67,109,2,2,36,67,0,84,105,82,86,95,67,113,109,99,13,68,99,115,0,0,0,0,0,0,0,0,0,0,0,0,0,0,0,0,0,0,0,0,0,0,0,0,0,0,0,0,0,0,0,0,0,0,0,0,0,0,0,0,0,0,0,0,0,0,0,0,0,0,0,0,0,0,0,0,0,0,0,0,0,0,0,0,0,0,0,0,0,0,0,0,0,0,0,0,0,0,0,0,0,0,0,0,0,0,0,0,0,0,0,0,0,0,0,0,0,0,0,0,0,0,0,0,0,0,0,0,0,0],"split_type":[0,0,0,0,0,0,0,0,0,0,0,0,0,0,0,0,0,0,0,0,0,0,0,0,0,0,0,0,0,0,0,0,0,0,0,0,0,0,0,0,0,0,0,0,0,0,0,0,0,0,0,0,0,0,0,0,0,0,0,0,0,0,0,0,0,0,0,0,0,0,0,0,0,0,0,0,0,0,0,0,0,0,0,0,0,0,0,0,0,0,0,0,0,0,0,0,0,0,0,0,0,0,0,0,0,0,0,0,0,0,0,0,0,0,0,0,0,0,0,0,0,0,0,0,0,0,0,0,0,0,0,0,0,0,0,0,0,0,0,0,0,0,0,0,0,0,0,0,0,0,0,0,0,0,0,0,0,0,0,0,0,0,0,0,0,0,0,0,0,0,0,0,0,0,0,0,0,0,0,0,0,0,0,0,0,0,0,0,0,0,0,0,0,0,0,0,0,0,0,0,0,0,0,0,0,0,0,0,0,0,0,0,0,0,0,0,0,0,0,0,0,0,0,0,0,0,0,0,0,0,0],"sum_hessian":[8.707E3,2.025E3,6.682E3,7.87E2,1.238E3,3.608E3,3.074E3,2.16E2,5.71E2,7.01E2,5.37E2,2.737E3,8.71E2,9.44E2,2.13E3,8.4E1,1.32E2,2.07E2,3.64E2,4.69E2,2.32E2,1.39E2,3.98E2,1.884E3,8.53E2,1.89E2,6.82E2,3.33E2,6.11E2,1.899E3,2.31E2,3E0,8.1E1,6.4E1,6.8E1,7.6E1,1.31E2,2.44E2,1.2E2,4.09E2,6E1,2.17E2,1.5E1,9.2E1,4.7E1,8.3E1,3.15E2,1.284E3,6E2,4.57E2,3.96E2,1.4E1,1.75E2,4.53E2,2.29E2,1.5E1,3.18E2,7.7E1,5.34E2,5.46E2,1.353E3,1.76E2,5.5E1,2E0,6.2E1,3E0,6.5E1,1.6E1,6E1,1.29E2,2E0,1.93E2,5.1E1,1.09E2,1.1E1,3.74E2,3.5E1,2.4E1,3.6E1,1.73E2,4.4E1,8E0,7E0,8.2E1,1E1,3.6E1,1.1E1,2.8E1,5.5E1,1.68E2,1.47E2,6.87E2,5.97E2,1.85E2,4.15E2,3.64E2,9.3E1,2.92E2,1.04E2,1.1E1,3E0,1.57E2,1.8E1,3E0,4.5E2,8.5E1,1.44E2,4E0,1.1E1,4E1,2.78E2,5.2E1,2.5E1,7.8E1,4.56E2,1.9E2,3.56E2,2.51E2,1.102E3,1.03E2,7.3E1,3.8E1,1.7E1,1E0,2E0,1E0,6.4E1,1.5E1,1E0,5.9E1,1E0,1.21E2,8E0,1E0,1E0,3.3E1,1.6E2,5E1,1E0,1E0,1.08E2,8E0,3E0,1.4E1,3.6E2,1.8E1,1.7E1,1.7E1,7E0,8E0,2.8E1,1.11E2,6.2E1,4.1E1,3E0,3E0,5E0,4.1E1,4.1E1,7E0,3E0,2.3E1,1.3E1,8E0,3E0,1.4E1,1.4E1,2.2E1,3.3E1,7.6E1,9.2E1,5.2E1,9.5E1,3.77E2,3.1E2,2.34E2,3.63E2,1.57E2,2.8E1,3.39E2,7.6E1,5E1,3.14E2,5.5E1,3.8E1,1.7E1,2.75E2,4.2E1,6.2E1,8E0,3E0,1.1E1,1.46E2,1.2E1,6E0,1E0,2E0,1.62E2,2.88E2,7.9E1,6E0,7.2E1,7.2E1,2E0,2E0,8E0,3E0,8E0,3.2E1,1.66E2,1.12E2,1.2E1,4E1,1.6E1,9E0,9E0,6.9E1,2.99E2,1.57E2,6.8E1,1.22E2,3.53E2,3E0,2.5E2,1E0,7.83E2,3.19E2,1.02E2,1E0,4E0,6.9E1],"tree_param":{"num_deleted":"0","num_feature":"117","num_nodes":"231","size_leaf_vector":"1"}},{"base_weights":[-2.1246905E-2,-3.0941954E0,8.760279E-1,-5.0805717E0,-2.4110148E0,3.4690164E-2,1.8669169E0,-6.5321264E0,-4.430921E0,-2.9369683E0,-1.519417E0,-4.895734E-1,1.51464E0,1.3583655E0,2.1157413E0,-7.5550027E0,-5.983013E0,-4.743475E0,-3.2302244E0,-3.0987988E0,-1.8676027E0,-1.9245558E0,-1.1657826E0,-2.709937E0,-3.2947627E-1,1.9334626E0,8.581315E-1,9.419518E-1,1.5407815E0,2.2906916E0,1.7931485E0,-6.173942E-1,-7.873925E0,-9.547946E-1,-5.0091114E0,-6.3463736E0,-4.56913E0,-3.4102564E0,-1.8237838E0,-3.3263671E0,-2.412111E0,-2.7563941E0,-1.4068382E0,-2.0443137E0,-3.3370453E-1,-1.0418812E0,-2.1071281E0,-5.0153885E0,-7.012051E-1,-2.0651157E0,-1.5713398E-1,2.040839E0,1.3890864E-1,6.6778827E-1,1.6299098E0,4.1493145E-1,1.0798433E0,1.2764709E0,1.736931E0,2.0787077E0,2.5252542E0,1.668505E0,2.2828255E0,-1.1136996E0,-2.6067585E-1,-7.5197554E-1,-2.8359523E0,-9.2424595E-1,-1.0645153E-2,-4.6016293E0,-1.855364E-1,-2.0003963E0,-3.59108E0,-6.535528E-2,-2.8697366E-1,-3.8833787E0,-3.0694E0,-3.2020168E0,-2.101172E0,-3.3591814E0,-1.3289895E0,-1.609733E0,4.111502E-1,-3.4408338E0,-1.9446441E0,-1.7963667E-1,6.963373E-3,-5.1194286E-1,-9.851152E-1,-1.0271541E0,-3.873124E0,-3.688534E0,-8.330433E0,-1.4180447E0,9.6649253E-1,-3.8177516E0,-1.272458E0,3.9332718E-2,-1.1446824E0,-1.1693826E0,2.0849092E0,-1.991507E-1,8.6675465E-1,1.7737737E-1,1.0728414E0,1.8619605E0,5.05049E-1,7.4825466E-1,-0E0,1.1133059E0,-7.311036E-1,-6.148346E-1,1.3116603E0,1.9012752E0,1.3581926E0,1.5170681E0,2.2291524E0,2.460843E0,3.4799347E0,1.4955772E0,1.9436854E0,2.3436794E0,9.119463E-1,-3.272862E-2,-4.7982365E-1,-5.420018E-1,-6.735961E-1,-4.1354153E-1,-1.5596671E-1,-5.272488E-1,-3.035512E-1,-6.269612E-1,-4.7012988E-1,-5.174534E-1,-3.9118403E-1,-5.299953E-1,-2.8645274E-1,-4.08522E-1,-2.6913893E-1,-5.1139134E-1,-8.441656E-2,4.34161E-2,-2.5330365E-1,-3.9849767E-1,-1.6460688E-1,-1.4372408E-1,-5.562807E-1,-3.1011212E-1,-2.0621592E-1,9.993844E-2,-5.763726E-2,-1.7709038E-1,-8.8242926E-2,3.567708E-3,-1.7710692E-1,-2.078398E-1,-7.4082184E-1,-6.8997747E-1,-4.9304876E-2,-1.2684841E0,-3.380499E-1,-3.525073E-1,-1.0159605E-1,2.4947205E-1,1.7591944E-2,-8.159387E-1,-4.026695E-1,-2.0200369E-1,-3.4253042E-2,-2.0126776E-1,2.491774E-2,-4.5909423E-1,-6.411376E-2,-1.5834464E-2,-2.065184E-1,3.800105E-1,2.685207E-1,-1.6381893E-1,1.6629327E-2,8.524842E-3,1.5988484E-1,6.1293982E-2,-6.5685086E-2,4.3001823E-2,1.8602113E-1,2.8991434E-1,1.2861742E-1,3.8864263E-3,1.5473859E-1,1.3656834E-1,2.4946518E-2,-1.2647365E-1,3.0051827E-2,-1.4079279E-1,1.5761253E-1,-1.7272772E-1,6.761447E-4,1.2939253E-1,2.0355369E-1,2.8993323E-1,2.053156E-1,1.5919964E-1,2.3732089E-1,-6.809257E-2,2.1830691E-1,1.7887627E-1,3.172732E-1,3.1764176E-1,3.8374498E-1,5.545432E-1,3.4555364E-1,2.3328027E-1,1.7709795E-1,2.0391339E-1,3.0232415E-1,1.5672696E-1,3.34007E-1,2.5445228E-3,1.9733928E-1],"categories":[],"categories_nodes":[],"categories_segments":[],"categories_sizes":[],"default_left":[0,0,1,0,1,0,0,0,1,0,0,0,0,1,1,0,0,0,0,0,0,0,0,1,0,1,0,0,0,0,0,0,0,0,0,0,0,0,0,0,0,0,0,0,0,0,0,0,0,1,0,0,0,0,1,0,0,0,0,0,0,0,0,0,0,0,0,0,0,0,0,0,0,0,0,0,0,0,0,0,0,0,0,0,0,0,0,0,0,0,0,0,0,0,0,0,0,0,0,0,0,0,0,0,0,1,1,0,0,0,0,0,0,0,0,0,0,0,0,0,0,0,0,0,0,0,0,0,0,0,0,0,0,0,0,0,0,0,0,0,0,0,0,0,0,0,0,0,0,0,0,0,0,0,0,0,0,0,0,0,0,0,0,0,0,0,0,0,0,0,0,0,0,0,0,0,0,0,0,0,0,0,0,0,0,0,0,0,0,0,0,0,0,0,0,0,0,0,0,0,0,0,0,0,0,0,0,0,0,0,0,0,0,0,0,0,0,0,0],"id":7,"left_children":[1,3,5,7,9,11,13,15,17,19,21,23,25,27,29,31,33,35,37,39,41,43,45,47,49,51,53,55,57,59,61,-1,63,-1,65,67,69,71,73,75,77,79,81,83,85,87,89,91,93,95,97,99,101,103,105,107,109,111,113,115,117,119,121,-1,-1,-1,123,-1,-1,125,-1,127,129,-1,-1,131,133,135,137,139,141,143,-1,145,147,-1,149,-1,151,153,155,157,159,161,163,165,167,169,171,173,175,177,179,181,183,185,187,189,191,193,195,-1,197,199,201,203,205,207,209,211,213,215,217,-1,-1,-1,-1,-1,-1,-1,-1,-1,-1,-1,-1,-1,-1,-1,-1,-1,-1,-1,-1,-1,-1,-1,-1,-1,-1,-1,-1,-1,-1,-1,-1,-1,-1,-1,-1,-1,-1,-1,-1,-1,-1,-1,-1,-1,-1,-1,-1,-1,-1,-1,-1,-1,-1,-1,-1,-1,-1,-1,-1,-1,-1,-1,-1,-1,-1,-1,-1,-1,-1,-1,-1,-1,-1,-1,-1,-1,-1,-1,-1,-1,-1,-1,-1,-1,-1,-1,-1,-1,-1,-1,-1,-1,-1,-1,-1],"loss_changes":[2.4036082E4,2.6589902E3,5.6246323E3,4.406787E2,6.829785E2,2.8330154E3,3.8844434E2,3.362207E1,1.1367578E2,1.5254932E2,7.5545654E1,9.5709155E2,2.6047046E2,7.567859E1,1.1223926E2,8.719238E0,4.670508E1,4.3336426E1,1.1730774E1,1.15245605E2,4.6039337E1,4.7217346E1,3.162854E1,8.342726E2,7.520461E2,1.1163379E2,5.3501953E1,2.2172943E1,3.390808E1,6.0398438E1,4.0234375E1,0E0,5.666504E0,0E0,2.4494263E1,3.856299E1,1.91875E1,8.189209E0,2.113186E0,7.131592E1,4.176477E1,2.987918E1,7.9411575E1,2.4634705E1,6.3345814E0,3.4584656E1,5.820308E1,3.3415503E2,1.1890297E2,3.0954303E2,4.4449304E2,8.053223E1,8.659265E0,5.967578E1,1.77901E1,9.230501E0,1.5993622E1,6.7317474E1,2.1850586E1,5.5979248E1,2.8608154E1,2.4503662E1,9.451965E0,0E0,0E0,0E0,1.44169235E1,0E0,0E0,1.7143555E1,0E0,4.4471855E0,4.7191772E0,0E0,0E0,3.98125E1,5.8734863E1,2.8048035E1,1.4758789E1,2.016858E1,1.1959984E1,3.9329437E1,0E0,1.31992035E1,2.4439392E1,0E0,4.8505197E0,0E0,2.4716446E1,5.736498E0,3.1674118E1,2.5567053E2,7.53927E1,5.032509E1,2.0262787E1,1.1287738E2,2.7394745E1,3.9255634E2,5.557054E2,2.2919016E0,5.0120605E1,7.725009E0,2.2814007E0,2.3553589E1,3.1907333E1,9.516617E0,3.9079356E0,4.519659E0,6.2202864E0,8.439514E0,2.0325773E0,0E0,1.5215271E1,1.6934448E1,6.9282227E0,1.4580994E1,1.7466309E1,2.4445068E1,6.4850464E0,1.1883423E1,1.9829529E1,4.259033E0,3.4553385E0,0E0,0E0,0E0,0E0,0E0,0E0,0E0,0E0,0E0,0E0,0E0,0E0,0E0,0E0,0E0,0E0,0E0,0E0,0E0,0E0,0E0,0E0,0E0,0E0,0E0,0E0,0E0,0E0,0E0,0E0,0E0,0E0,0E0,0E0,0E0,0E0,0E0,0E0,0E0,0E0,0E0,0E0,0E0,0E0,0E0,0E0,0E0,0E0,0E0,0E0,0E0,0E0,0E0,0E0,0E0,0E0,0E0,0E0,0E0,0E0,0E0,0E0,0E0,0E0,0E0,0E0,0E0,0E0,0E0,0E0,0E0,0E0,0E0,0E0,0E0,0E0,0E0,0E0,0E0,0E0,0E0,0E0,0E0,0E0,0E0,0E0,0E0,0E0,0E0,0E0,0E0,0E0,0E0,0E0,0E0,0E0],"parents":[2147483647,0,0,1,1,2,2,3,3,4,4,5,5,6,6,7,7,8,8,9,9,10,10,11,11,12,12,13,13,14,14,15,15,16,16,17,17,18,18,19,19,20,20,21,21,22,22,23,23,24,24,25,25,26,26,27,27,28,28,29,29,30,30,32,32,34,34,35,35,36,36,37,37,38,38,39,39,40,40,41,41,42,42,43,43,44,44,45,45,46,46,47,47,48,48,49,49,50,50,51,51,52,52,53,53,54,54,55,55,56,56,57,57,58,58,59,59,60,60,61,61,62,62,66,66,69,69,71,71,72,72,75,75,76,76,77,77,78,78,79,79,80,80,81,81,83,83,84,84,86,86,88,88,89,89,90,90,91,91,92,92,93,93,94,94,95,95,96,96,97,97,98,98,99,99,100,100,101,101,102,102,103,103,104,104,105,105,106,106,107,107,108,108,109,109,110,110,112,112,113,113,114,114,115,115,116,116,117,117,118,118,119,119,120,120,121,121,122,122],"right_children":[2,4,6,8,10,12,14,16,18,20,22,24,26,28,30,32,34,36,38,40,42,44,46,48,50,52,54,56,58,60,62,-1,64,-1,66,68,70,72,74,76,78,80,82,84,86,88,90,92,94,96,98,100,102,104,106,108,110,112,114,116,118,120,122,-1,-1,-1,124,-1,-1,126,-1,128,130,-1,-1,132,134,136,138,140,142,144,-1,146,148,-1,150,-1,152,154,156,158,160,162,164,166,168,170,172,174,176,178,180,182,184,186,188,190,192,194,196,-1,198,200,202,204,206,208,210,212,214,216,218,-1,-1,-1,-1,-1,-1,-1,-1,-1,-1,-1,-1,-1,-1,-1,-1,-1,-1,-1,-1,-1,-1,-1,-1,-1,-1,-1,-1,-1,-1,-1,-1,-1,-1,-1,-1,-1,-1,-1,-1,-1,-1,-1,-1,-1,-1,-1,-1,-1,-1,-1,-1,-1,-1,-1,-1,-1,-1,-1,-1,-1,-1,-1,-1,-1,-1,-1,-1,-1,-1,-1,-1,-1,-1,-1,-1,-1,-1,-1,-1,-1,-1,-1,-1,-1,-1,-1,-1,-1,-1,-1,-1,-1,-1,-1,-1],"split_conditions":[2E1,1.14E1,2.4733334E1,6.9E0,1.6066668E1,-6.372107E-1,2.68E1,3.8666666E0,1.2233334E1,1.75E1,1.85E1,3.0392128E-1,9.7804743E-1,2.6E1,1.64E1,1.7171805E-1,1.015017E0,4.9E0,1.6733334E1,-8.6747855E-1,4.7333333E-1,-6.589047E-1,2.5082752E-1,5E1,1.9166666E1,6.649E1,-4.2620826E-1,6.6E1,2.61E1,2.7933332E1,2.8833334E1,-6.173942E-1,1.0104152E0,-9.547946E-1,3.166E1,1.0342828E0,-8.4494245E-1,6.9666666E-1,-9.515309E-1,1.2733334E1,9.726961E-1,-8.9285004E-1,3.2E1,8E-2,5.5549804E-2,5.0333333E-1,3.7826E0,1.0271274E0,2.1663566E0,3.1E1,4.441021E-2,9.843481E-1,2.4133333E1,-2.1846034E-1,6.9666666E-1,-2.2851537E-1,2.7970082E-1,2.2E0,1.55E1,7.9E-1,3.0433332E1,9.666785E-1,2.167459E-1,-1.1136996E0,-2.6067585E-1,-7.5197554E-1,-5.3306E-1,-9.2424595E-1,-1.0645153E-2,-9.5754457E-1,-1.855364E-1,9.8809135E-1,1.0335212E0,-6.535528E-2,-2.8697366E-1,-9.3179923E-1,-9.657557E-1,1.5E1,5.408E1,9.585168E-1,1.0966666E1,5.8E1,4.111502E-1,4.0054885E-1,5.734E1,-1.7963667E-1,1.75E1,-5.1194286E-1,-2.1707398E-1,3.5333332E-1,1.51279E3,1.1548941E-1,1.91357E3,2.8039002E-1,5.09E2,1.2966666E1,1.8192474E0,9.7583836E-1,1.5931068E3,5.140087E-2,1.331731E-1,-2.417134E-1,1.731104E-2,8.143816E-1,9.8566633E-1,2.47E1,8.2E1,7.5333333E-1,9E-1,3.324E1,1.668865E-1,-6.148346E-1,-7.6699907E-1,2.2116733E3,-4.8342454E-1,9.239114E4,4.255E1,6.0333335E-1,6.869E1,2.0666666E1,7.6666665E-1,1.02E1,4.2333335E-1,-3.272862E-2,-4.7982365E-1,-5.420018E-1,-6.735961E-1,-4.1354153E-1,-1.5596671E-1,-5.272488E-1,-3.035512E-1,-6.269612E-1,-4.7012988E-1,-5.174534E-1,-3.9118403E-1,-5.299953E-1,-2.8645274E-1,-4.08522E-1,-2.6913893E-1,-5.1139134E-1,-8.441656E-2,4.34161E-2,-2.5330365E-1,-3.9849767E-1,-1.6460688E-1,-1.4372408E-1,-5.562807E-1,-3.1011212E-1,-2.0621592E-1,9.993844E-2,-5.763726E-2,-1.7709038E-1,-8.8242926E-2,3.567708E-3,-1.7710692E-1,-2.078398E-1,-7.4082184E-1,-6.8997747E-1,-4.9304876E-2,-1.2684841E0,-3.380499E-1,-3.525073E-1,-1.0159605E-1,2.4947205E-1,1.7591944E-2,-8.159387E-1,-4.026695E-1,-2.0200369E-1,-3.4253042E-2,-2.0126776E-1,2.491774E-2,-4.5909423E-1,-6.411376E-2,-1.5834464E-2,-2.065184E-1,3.800105E-1,2.685207E-1,-1.6381893E-1,1.6629327E-2,8.524842E-3,1.5988484E-1,6.1293982E-2,-6.5685086E-2,4.3001823E-2,1.8602113E-1,2.8991434E-1,1.2861742E-1,3.8864263E-3,1.5473859E-1,1.3656834E-1,2.4946518E-2,-1.2647365E-1,3.0051827E-2,-1.4079279E-1,1.5761253E-1,-1.7272772E-1,6.761447E-4,1.2939253E-1,2.0355369E-1,2.8993323E-1,2.053156E-1,1.5919964E-1,2.3732089E-1,-6.809257E-2,2.1830691E-1,1.7887627E-1,3.172732E-1,3.1764176E-1,3.8374498E-1,5.545432E-1,3.4555364E-1,2.3328027E-1,1.7709795E-1,2.0391339E-1,3.0232415E-1,1.5672696E-1,3.34007E-1,2.5445228E-3,1.9733928E-1],"split_indices":[109,109,107,107,107,66,107,107,107,109,107,67,68,109,115,88,68,109,107,66,84,66,22,97,107,103,66,97,107,107,107,0,82,0,103,68,66,96,66,107,82,66,115,84,2,96,12,68,111,97,11,52,107,24,96,18,16,115,113,96,107,82,6,0,0,0,15,0,0,39,0,40,68,0,0,66,66,107,103,88,113,97,0,88,103,0,109,0,20,84,75,16,69,67,105,107,111,68,10,2,0,18,2,88,68,109,97,96,91,103,0,0,66,10,66,99,103,84,103,113,96,113,84,0,0,0,0,0,0,0,0,0,0,0,0,0,0,0,0,0,0,0,0,0,0,0,0,0,0,0,0,0,0,0,0,0,0,0,0,0,0,0,0,0,0,0,0,0,0,0,0,0,0,0,0,0,0,0,0,0,0,0,0,0,0,0,0,0,0,0,0,0,0,0,0,0,0,0,0,0,0,0,0,0,0,0,0,0,0,0,0,0,0,0,0,0,0,0,0],"split_type":[0,0,0,0,0,0,0,0,0,0,0,0,0,0,0,0,0,0,0,0,0,0,0,0,0,0,0,0,0,0,0,0,0,0,0,0,0,0,0,0,0,0,0,0,0,0,0,0,0,0,0,0,0,0,0,0,0,0,0,0,0,0,0,0,0,0,0,0,0,0,0,0,0,0,0,0,0,0,0,0,0,0,0,0,0,0,0,0,0,0,0,0,0,0,0,0,0,0,0,0,0,0,0,0,0,0,0,0,0,0,0,0,0,0,0,0,0,0,0,0,0,0,0,0,0,0,0,0,0,0,0,0,0,0,0,0,0,0,0,0,0,0,0,0,0,0,0,0,0,0,0,0,0,0,0,0,0,0,0,0,0,0,0,0,0,0,0,0,0,0,0,0,0,0,0,0,0,0,0,0,0,0,0,0,0,0,0,0,0,0,0,0,0,0,0,0,0,0,0,0,0,0,0,0,0,0,0,0,0,0,0,0,0,0,0,0,0,0,0],"sum_hessian":[8.715E3,1.969E3,6.746E3,5.02E2,1.467E3,3.649E3,3.097E3,1.52E2,3.5E2,9.21E2,5.46E2,2.695E3,9.54E2,1.02E3,2.077E3,4.8E1,1.04E2,2.75E2,7.5E1,7.98E2,1.23E2,2.52E2,2.94E2,1.8E2,2.515E3,5.81E2,3.73E2,3.13E2,7.07E2,1.342E3,7.35E2,6E0,4.2E1,5.2E1,5.2E1,2.3E1,2.52E2,6.5E1,1E1,5.96E2,2.02E2,4E1,8.3E1,2.34E2,1.8E1,2.62E2,3.2E1,8.3E1,9.7E1,2.26E2,2.289E3,5.48E2,3.3E1,3.01E2,7.2E1,6.6E1,2.47E2,3.05E2,4.02E2,7.11E2,6.31E2,5.9E2,1.45E2,4.1E1,1E0,4.3E1,9E0,2.2E1,1E0,2.49E2,3E0,9E0,5.6E1,2E0,8E0,1.83E2,4.13E2,5.4E1,1.48E2,2.7E1,1.3E1,8E1,3E0,1.3E1,2.21E2,4E0,1.4E1,4E0,2.58E2,2.1E1,1.1E1,6.1E1,2.2E1,6.8E1,2.9E1,6.9E1,1.57E2,1.91E3,3.79E2,7E0,5.41E2,2.3E1,1E1,1.37E2,1.64E2,5.9E1,1.3E1,3.6E1,3E1,2.43E2,4E0,1E0,3.04E2,2.77E2,1.25E2,1.53E2,5.58E2,5.95E2,3.6E1,3.67E2,2.23E2,1.38E2,7E0,2E0,7E0,6.2E1,1.87E2,3E0,6E0,4.8E1,8E0,8.1E1,1.02E2,1.2E2,2.93E2,3.4E1,2E1,2.3E1,1.25E2,2.4E1,3E0,3E0,1E1,1.9E1,